Layer_Src,Layer_Dst,Neuron_Src_ID,Neuron_Dst_ID,Base_Weight,Spline_0,Spline_1,Spline_2,Spline_3,Spline_4,Spline_5,Spline_6,Spline_7,Spline_8,Spline_9,Spline_10
0,1,0,0,-0.0151353385,0.34402597,0.32538274,0.15363896,0.025332946,0.7099996,0.22128284,-0.60610133,-0.023126772,-0.005343972,0.08691401,0.116551235
0,1,1,0,-0.010187461,-0.090028495,0.08511432,0.1187764,-0.027737722,-0.013942488,0.07770846,0.04172065,-0.084543504,-0.13202211,-0.046040222,0.00922019
0,1,2,0,0.013437315,0.07458647,-0.07482867,0.11627469,0.12989499,0.03203583,0.10085609,-0.04286316,0.0049993917,0.024226522,0.12415589,-0.057006706
0,1,3,0,0.07777336,0.51294535,0.08217585,-0.0072089843,-0.011019802,0.008840162,0.12471163,0.060958184,-0.063234836,-0.13553531,-0.06694944,0.06744294
0,1,4,0,0.039016537,-0.0068366006,-0.117871836,0.09028855,0.00930189,0.08866213,-0.041256364,0.12383165,-0.104593344,-0.01778533,-0.07786116,-0.008910075
0,1,5,0,0.06616001,0.06733415,-0.06169306,0.06885621,0.13972493,0.022256033,0.023525916,0.05260717,-0.044939123,0.065634824,0.07143652,-0.0558206
0,1,6,0,0.044076648,0.37410483,0.106746465,-0.19149607,-0.080216885,-0.24488291,-0.17121498,0.29453087,0.016907964,-0.06570478,-0.034889337,0.1347715
0,1,7,0,0.09457921,-0.06549589,-0.034627333,-0.016956732,0.15605842,0.09152021,0.1341953,-0.09084747,-0.10060724,-0.104179814,0.005344537,0.018385015
0,1,8,0,0.07364138,-0.089330725,0.06865228,-0.06379394,0.05507742,0.14092587,0.08162459,0.09486341,0.09088191,0.08234223,-0.016178092,-0.06709655
0,1,0,1,-0.09291465,-0.7190005,-0.32438698,0.15639816,-0.23824245,0.089744635,-0.07359833,-0.11632312,0.053274386,-0.061109915,-0.12676014,-0.053441714
0,1,1,1,-0.09886642,-0.10068753,0.31054598,0.07595248,-0.151643,0.07721583,-0.09656127,0.0562557,-0.16331899,0.0647501,-0.093435965,0.052627094
0,1,2,1,0.01913409,-0.022284493,0.099190526,-0.0512793,0.063971154,-0.09012594,-0.08891993,0.03630463,0.040720556,0.0070138755,-0.06577536,-0.0973124
0,1,3,1,-0.10265616,-0.9422135,-0.3300907,0.16447541,-0.15353397,0.0416229,0.050649837,0.11660133,0.18545923,0.019191172,-0.11344526,-0.084202096
0,1,4,1,0.083970554,-0.09078058,0.21622474,0.060563188,-0.06620799,-0.077639975,-0.033988763,-0.043311775,0.08548529,-0.023096051,0.02564052,-0.046909124
0,1,5,1,0.08596262,-0.057011325,-0.040382586,-0.044567324,-0.05538231,-0.10205058,0.004569754,-0.09325438,0.056245796,-0.1026058,0.04087061,0.0021102577
0,1,6,1,-0.0083828345,-0.88235784,-0.44308567,0.009915228,0.003685948,-0.07090803,-0.08730683,-0.017658925,0.14050283,0.13914882,-0.20912217,-0.13931611
0,1,7,1,-0.0031814848,-0.09132346,0.14333124,0.10314724,-0.12411605,0.025241885,-0.06931595,-0.017276974,-0.2056959,-0.041797176,0.09311532,-0.08897444
0,1,8,1,-0.04618045,0.09042805,0.025874235,-0.08324922,-0.1036372,0.0408069,0.09795166,-0.067631245,-0.0068576885,-0.09080425,-0.10348446,0.10127821
0,1,0,2,0.06331853,-0.081266426,0.2544761,-0.14670077,0.19741373,-0.3334149,0.13394837,0.15063694,0.18513703,-0.14195788,-0.07950629,0.12974569
0,1,1,2,-0.05413065,-0.10767313,-0.109725244,0.034270104,0.11668997,0.055638727,-0.040714674,0.2672012,-0.042815503,0.03223774,0.008183577,0.05099448
0,1,2,2,0.005065721,0.023777105,0.041030325,0.11122475,-0.056205977,-0.09476125,-0.02922687,0.06021338,0.018858721,-0.06689645,-0.09302807,-0.08346494
0,1,3,2,-0.023266302,0.19095837,0.25834554,-0.1282449,0.049934097,-0.12101471,0.1735009,0.011705166,0.18903172,0.026941024,-0.15145755,-0.063030146
0,1,4,2,-0.014413217,-0.08256267,0.14544952,0.075233825,-0.02510597,0.03946309,0.023176853,0.17484662,-0.10563701,-0.057889443,-0.059433173,-0.06899839
0,1,5,2,-0.109706976,0.055286236,0.093693145,-0.043603048,-0.081539325,0.01815272,0.076460235,0.0723769,-0.041236192,0.111648,0.03470794,0.1066755
0,1,6,2,0.06536591,0.16230677,0.26989216,-0.2001118,0.19515444,-0.030272294,0.21640438,-0.16819663,0.16922386,-0.039022133,-0.09782369,-0.027125841
0,1,7,2,0.100326024,-0.097977296,0.059090808,0.07688416,0.048476852,0.0685274,0.17922264,0.09375054,-0.057796046,-0.10085201,-0.1096603,0.07738405
0,1,8,2,-0.08309525,0.090655126,0.09237588,-0.054971907,-0.049489252,0.08741083,-0.092851296,0.046242528,0.0027239665,0.06712699,-0.027404467,0.032442756
0,1,0,3,-0.060171966,-0.22494246,-0.19381185,0.07596376,0.24187388,-0.24617523,-0.07671134,0.10513958,0.07796385,0.08444318,0.09903347,-0.062804274
0,1,1,3,-0.07175677,0.09635366,-0.1914292,-0.15205821,-0.079168946,0.0021279075,0.04678476,0.14293115,0.020850964,0.014509246,-0.07199502,-0.07675269
0,1,2,3,0.03866679,-0.046390414,-0.108604886,-0.00799159,-0.04239453,0.051544905,0.08878466,-0.06962781,-0.0067848847,-0.060011636,0.06412385,0.08828545
0,1,3,3,0.01923531,-0.43221372,-0.25646022,0.060437974,0.37454683,-0.07186048,0.0013005496,-0.094127834,-0.060023822,0.048761364,-0.07299207,0.096519664
0,1,4,3,0.043993574,0.03492353,-0.20478246,0.056168083,0.02841919,-0.19334865,-0.03669236,0.001140786,0.094307736,0.068675436,0.023173722,0.026534207
0,1,5,3,-0.048806358,0.03175617,0.0898475,-0.045847733,0.09125292,0.005331386,0.017854698,0.04307478,0.0062995553,-0.103161626,-0.09177091,0.0655509
0,1,6,3,0.10327421,-0.3323871,-0.078918025,0.04158941,0.20876986,-0.005095008,0.17062199,-0.30880463,-0.037489768,-0.11086478,-0.05249996,-0.040278547
0,1,7,3,0.114099085,0.08266503,-0.12972221,0.023357233,-0.025146684,-0.14716502,0.06538533,0.03353596,0.110830754,0.09553173,-0.032327984,-0.016132988
0,1,8,3,-0.0039061904,-0.007824816,-0.07402854,-0.1026935,0.09175035,0.088589735,-0.058124952,0.058502473,0.03778082,-0.06015302,0.031985216,0.105637334
0,1,0,4,-0.04194777,0.11205846,0.05451958,-0.11898525,0.45300508,-0.20214485,-0.07178195,-0.15947203,0.011629306,-0.052879177,-0.009648337,0.044679012
0,1,1,4,0.078912035,-0.015247144,-0.10473643,0.11307045,0.029913273,-0.053545564,0.021188753,0.0016227578,-0.17249915,0.09211066,-0.043497656,0.08787923
0,1,2,4,0.021414021,-0.014344849,-0.059971265,0.031550236,-0.03636711,-0.004818402,0.035639666,-0.06617962,0.06788589,0.08273114,0.09405847,0.07495814
0,1,3,4,-0.081079915,0.2253853,0.017671395,-0.09203033,0.3353275,-0.16804224,0.026190216,0.012194769,0.020607568,0.00677251,0.045031093,-0.05062516
0,1,4,4,-0.0409375,0.07617255,0.0027999652,-0.106016114,-0.09746909,-0.13004674,0.030974638,-0.118536316,-0.030987602,-0.10357406,0.009959291,-0.0050908476
0,1,5,4,-0.050629653,0.04092122,0.08840024,0.0294801,0.034461536,-0.061868135,0.038177423,-0.03859826,-0.11353487,0.010949568,0.09640105,-0.082577154
0,1,6,4,-0.05137848,0.24257044,-0.1306686,-0.19333766,0.16617766,-0.31194687,-0.28556007,0.2034358,0.030273305,0.09571054,0.06760057,0.01823757
0,1,7,4,0.05242393,-0.06451385,0.0138287805,0.0869287,-0.028154489,-0.07580913,0.10621225,-0.10043335,0.01663545,-0.035670996,-0.055571113,0.06376565
0,1,8,4,0.024659935,-0.02003549,0.07721504,0.052792817,0.05650723,-0.07012312,-0.018212877,-0.10456291,-0.010785825,-0.08696234,-0.0012074192,-0.07979956
0,1,0,5,-0.03588452,-0.47393054,0.025119903,0.043003693,-0.18551482,0.2261582,0.08191579,-0.13182843,0.0205299,-0.060663193,0.025846431,0.0020514326
0,1,1,5,-0.07255673,-0.0018641576,0.13787347,0.08897464,0.03005286,0.040719427,0.07536957,-0.06590932,0.012970678,-0.00015354987,-0.09992029,0.014225043
0,1,2,5,-0.01596618,-0.10279175,0.109052904,0.07319527,-0.017235005,0.10170919,0.089393,0.060639165,0.062267683,0.057569046,0.0071433834,-0.0013899133
0,1,3,5,0.096432954,-0.43799683,0.05192521,0.16559269,-0.12052359,0.012019149,0.029842498,0.057842374,0.0054706046,0.088479616,-0.04197063,0.036706667
0,1,4,5,0.061132666,0.0042319596,0.014853086,-0.08289178,0.040162217,0.09235545,-0.10761351,0.046219178,0.05998954,0.06417329,0.12245564,0.10911954
0,1,5,5,0.091196574,0.0004143566,-0.048461407,-0.04831145,-0.017616248,0.04228797,-0.054518633,-0.11082493,0.0025167456,-0.08015387,0.08552992,0.089425094
0,1,6,5,-0.094698824,-0.4059654,0.021816323,-0.08207954,-0.041940637,0.019311553,-0.12781891,0.08647526,0.09244923,-0.0136829745,-0.011294079,-0.12471166
0,1,7,5,0.047635846,-0.02702827,0.084019005,0.07290579,-0.10624451,0.06990045,-0.045532346,-0.014342822,-0.027121937,-0.07034868,-0.08779393,0.05028095
0,1,8,5,-0.065296225,-0.0980154,0.07842197,0.0946119,-0.032508492,0.11214657,0.01877331,-0.014919929,-0.0711442,0.041212328,0.054545585,0.012236476
0,1,0,6,-0.051508304,0.9866398,0.78543067,-0.40933344,0.5447273,-0.5612154,0.021899618,0.21530263,0.045422282,-0.007746086,0.025726432,-0.0490374
0,1,1,6,0.097007744,0.0663693,-0.23057817,-0.046172764,0.13153225,0.048878282,0.062388584,0.014118414,0.015171474,0.040627733,0.039575376,0.026988395
0,1,2,6,-0.093792945,0.10882322,-0.06294082,-0.14388004,-0.027801558,0.047800813,0.05898469,-0.01389531,-0.042534232,-0.05232354,-0.09354249,0.10984791
0,1,3,6,-0.044329498,1.0,0.9540719,-0.37311268,0.51548755,-0.26322418,-0.14302485,0.10028561,-0.059372507,-0.04515131,-0.00073107384,-0.15597972
0,1,4,6,0.11301507,-0.095727935,-0.20601407,-0.1292426,-0.030551434,0.02039971,-0.04193585,0.12120174,-0.060311597,0.010469257,0.03072568,0.08659137
0,1,5,6,-0.00647813,-0.0003152266,-0.002312392,-0.048188515,-0.03309167,0.04016887,0.086560614,-0.053612906,0.050218973,0.107635625,-0.013596329,0.025751255
0,1,6,6,0.099553265,1.0,0.9840018,-0.3047626,0.52708304,-0.011556067,-0.04734188,0.079993,-0.030560896,0.07147434,0.06688221,0.010560664
0,1,7,6,-0.06413172,-0.0702837,-0.20802838,-0.098861106,0.07379689,0.051011514,-0.004630583,-0.04878517,0.084003136,-0.0334366,-0.057251077,0.01104787
0,1,8,6,0.09030148,0.08608451,-0.045687877,0.019278813,-0.09618088,-0.029017065,0.041765817,-0.070666365,0.015031996,-0.07543452,0.011538923,-0.09696117
0,1,0,7,0.050344862,-0.07837551,-0.10425761,0.059014514,-0.010945188,0.092526555,-0.066462174,0.006958984,-0.007287906,0.012666428,0.0900973,0.023887647
0,1,1,7,-0.019571358,-0.0036782175,0.114310995,-0.061139576,-0.1019739,-0.0857682,-0.12804496,0.052459545,-0.07033114,0.025176859,0.038622856,-0.067119285
0,1,2,7,-0.094403185,0.08820736,0.025468208,0.06489512,-0.07076527,-0.11567155,0.05536356,-0.092787914,0.0017131448,0.0036609066,-0.064210266,-0.018443622
0,1,3,7,-0.10401573,-0.21925241,-0.05679397,0.023633866,-0.06607476,0.004497541,0.0016347235,-0.026694631,-0.037388794,-0.12570617,0.024453942,0.006808954
0,1,4,7,-0.08177263,-0.02558466,0.057423823,-0.06910935,-0.08644797,-0.022931652,0.034988485,0.0022154474,-0.06798126,-0.0024946863,-0.089858405,-0.015393667
0,1,5,7,0.025577614,-0.09509651,-0.0023755357,-0.023150258,0.053459268,-0.04150041,0.006053604,-0.058868553,-0.026729781,-0.00581532,-0.003963216,-0.07081509
0,1,6,7,-0.0026638745,-0.1418401,-0.12484442,0.023001153,-0.12684868,0.015434493,-0.027937006,0.002893986,0.002581016,0.05484745,0.043361988,0.063123204
0,1,7,7,0.102004156,-0.0019937456,-0.048627846,0.044630446,0.07022023,0.027250059,-0.030191133,-0.051957216,0.085509144,-0.034678366,0.010206817,0.07401868
0,1,8,7,-0.008535423,-0.02633275,-0.09492113,-0.06725065,-0.10112541,0.023536509,-0.09244173,0.072156675,-0.027879547,-0.09694196,0.10379599,-0.018404298
0,1,0,8,-0.107226625,0.58946747,0.11383603,0.23114625,-0.23277205,-0.011594937,0.030328495,0.075452164,-0.062681936,-0.080283284,-0.11018785,-0.10438329
0,1,1,8,0.10130407,-0.045429148,0.3111907,0.010388225,-0.03456795,-0.045225013,0.021016395,-0.13384883,-0.10597499,-0.00045031327,-0.08115479,0.05035945
0,1,2,8,-0.04677837,0.100640066,-0.09718832,0.117403015,0.06992094,-0.05137885,0.047172032,-0.042954817,-0.08755436,0.052444447,-0.047478423,0.01449842
0,1,3,8,-0.062915094,0.5465822,-0.08896317,0.061981607,-0.22623666,0.23240358,-0.0031697256,-0.09566416,0.0007334203,-0.01564184,-0.029171698,0.10577604
0,1,4,8,-0.09841178,-0.075604275,0.26204407,0.0577266,-0.05717534,-0.13146141,-0.12399169,-0.0907893,-0.1214581,-0.05600511,-0.027909072,-0.024685502
0,1,5,8,0.07973144,-0.034391522,0.04103767,0.12597832,-0.020384753,-0.05772318,0.037704937,0.043217845,-0.0324992,0.01005534,-0.051445495,0.026738591
0,1,6,8,0.08055944,0.48088315,-0.2169374,-0.14067094,-0.46503502,-0.047951087,-0.0044545215,-0.10238732,-0.06612408,0.114238456,-0.111435525,0.06814208
0,1,7,8,0.012926453,-0.061649907,0.2091396,0.15980354,-0.11931229,0.008381128,0.039718695,0.031608824,-0.08622156,-0.1114272,-0.10625024,-0.10300427
0,1,8,8,-0.00015863053,-0.08091586,-0.103407964,-0.06092316,0.12781547,-0.08052957,0.064957924,0.08835786,-0.06511966,-0.028952124,-0.10046961,-0.06886738
0,1,0,9,-0.012309897,0.3387707,-0.003653316,-0.21663591,0.19826093,-0.20654437,-0.02300814,0.13267517,0.0442807,0.027539626,-0.055708516,0.1065759
0,1,1,9,0.02261213,0.077456705,-0.16963501,-0.12221992,0.0154775595,-0.06575514,0.015609375,-0.08625958,-0.015072623,-0.08516364,-0.015166031,0.060507767
0,1,2,9,-0.039819278,0.10855616,-0.050007105,-0.0057762004,-0.08011449,-0.11238904,0.058416434,0.03402514,-0.03260876,-0.019332064,0.016879411,0.04434534
0,1,3,9,0.052757278,0.35107437,0.16048579,-0.049570356,0.14241955,-0.010922098,-0.080228604,0.021424102,-0.09309207,0.040132094,0.114922106,-0.10371955
0,1,4,9,-0.0013999824,-0.08337608,-0.037193194,-0.01673023,0.098226696,0.095598854,0.027788874,0.086638734,-0.038978167,0.096116446,0.044208214,-0.032309264
0,1,5,9,0.046668895,-0.0791765,-0.032406062,-0.05396008,-0.078801766,0.06753176,0.028384246,-0.110911064,0.08568137,-0.05318771,-0.07318717,-0.022180438
0,1,6,9,-0.08098501,0.34661594,0.08988716,-0.03180921,0.013130003,0.079406954,-0.028522125,-0.0994026,-0.09078246,0.011356134,-0.047667187,-0.072520986
0,1,7,9,-0.06814928,0.06498552,-0.06878643,-0.08118838,-0.035094604,-0.04327439,-0.01105111,0.051350407,-0.046929944,0.09360869,-0.046100177,0.03126771
0,1,8,9,0.06342173,-0.08842769,-0.04331916,0.0681561,-0.03335402,0.0030579849,0.058655985,-0.021458663,-0.0052931523,-0.037466224,0.12029254,0.006349191
0,1,0,10,-0.103799,0.34447283,0.09430495,0.073323056,-0.2901077,0.22885634,0.10472408,-0.2349043,-0.016932925,0.01551104,0.02451075,0.009424642
0,1,1,10,0.005939349,-0.024472885,0.066883795,0.1079295,0.024677033,0.124014564,-0.25070593,0.0044159545,0.029788623,0.018473843,-0.12872714,0.081712864
0,1,2,10,-0.002132925,-0.033646733,0.057308204,0.040834524,0.06135071,-0.08630083,0.046775945,0.083879076,0.034183603,0.0876586,0.05949326,-0.04575643
0,1,3,10,-0.02760542,0.34512112,-0.09054981,0.095865406,-0.30008045,0.079569906,0.07115484,-0.02060998,0.018278684,-0.03858979,-0.021954568,0.06549618
0,1,4,10,-0.06425703,-0.005601473,0.19518648,0.040340245,0.006153785,0.069880486,-0.19727652,0.14857055,-0.09652557,-0.03132018,0.042926367,-0.09581474
0,1,5,10,0.025731212,0.0851065,-0.09821984,-0.0505038,-0.054830384,-0.0012037762,0.05597099,0.029622741,-0.016737208,0.030813767,0.08824358,-0.025572859
0,1,6,10,0.09897039,0.30780557,-0.20178854,-0.0428466,-0.25690284,-0.06315816,0.054880764,0.19134748,-0.16013573,-0.11126082,-0.054249357,0.12232835
0,1,7,10,-0.104161516,-0.049903076,0.16724308,0.017006246,-0.10421677,0.04051157,-0.08771223,-0.0352694,0.005080133,-0.084196664,-0.085609175,-0.093384795
0,1,8,10,0.103121445,-0.023819536,-0.04402379,0.05033251,-0.035973065,-0.07385887,-0.07768011,-0.02479899,-0.041985344,0.006396375,-0.080883674,0.05739408
0,1,0,11,-0.028674725,-0.81688946,-0.20545818,-0.009780105,0.10751183,-0.21122505,-0.1880126,0.41835943,0.02590159,0.049889047,-0.07567304,0.090421386
0,1,1,11,0.06807784,0.08264471,0.17931229,0.16867206,0.11825094,-0.011813464,0.017430246,0.114256166,0.012150054,-0.10703772,0.09990754,0.07578779
0,1,2,11,0.08305225,-0.029008746,0.08298314,0.071336895,0.0893599,0.030783057,0.04697471,0.07098516,0.117226414,-0.0047917785,-0.02931278,0.06290706
0,1,3,11,-0.01356097,-0.8691836,-0.23877221,0.012690016,-0.13207892,-0.14476651,-0.14639547,0.10548897,0.05608474,-0.021052497,-0.012479995,0.028973088
0,1,4,11,-0.03789029,0.053480037,0.014990596,0.099139795,0.068580456,0.06248223,0.11231814,-0.043991897,-0.026180642,-0.05004631,-0.031453375,0.10872089
0,1,5,11,0.00031321982,-0.05068134,-0.10916878,-0.030120121,-0.038703296,-0.09949857,-0.007995501,0.09765672,0.085605524,0.019304326,-0.06236881,0.066847436
0,1,6,11,0.064945295,-0.7395663,-0.18241936,0.029133748,-0.30390194,0.010762873,-0.04943386,0.081267744,-0.077209,-0.0626661,-0.09643815,-0.00012406475
0,1,7,11,0.034899976,0.03182327,-0.044303216,-0.06535578,0.0631735,0.030465962,-0.07501199,0.04325016,0.076262966,0.09522554,0.067536555,0.031066142
0,1,8,11,-0.077087104,0.01762829,-0.060170997,0.07872868,-0.09378046,0.04420347,0.07864032,-0.071162835,0.117713936,0.073249176,0.050737396,-0.09230356
0,1,0,12,0.0002429185,-0.33220458,0.0020652409,-0.06984239,0.13053031,-0.030022757,-0.054047357,-0.038613148,-0.019398358,0.06734472,0.046845146,-0.031110907
0,1,1,12,0.013404529,-0.017254114,0.13007697,-0.04972195,-0.06538921,-0.094876446,0.06162163,0.026088497,-0.028136732,0.06224775,0.014625587,-0.05990088
0,1,2,12,-0.054440167,0.05244375,-0.07271175,-0.025468316,-0.04223005,0.023524914,-0.085510746,0.08938561,0.05054417,0.004491201,-0.044757202,0.09324781
0,1,3,12,-0.00046302803,-0.49650666,-0.10031453,-0.030945787,-0.08982104,-0.109977484,-0.09194308,0.006158572,-0.06957914,-0.060479496,-0.033743035,-0.03441288
0,1,4,12,-0.0679393,-0.033265404,0.107464366,0.015536532,-0.118054904,-0.008039578,0.034447487,0.05324068,0.019052185,-0.09270627,0.0994389,-0.01273521
0,1,5,12,0.027422331,0.10199385,0.042093344,-0.0060747555,0.0361806,0.11566731,0.03354936,-0.07281499,0.061773483,0.078837395,-0.07997951,0.07323805
0,1,6,12,-0.09354613,-0.45486343,0.018837998,-0.10935754,0.06944952,-0.060707778,0.05979535,0.14974211,-0.05251452,0.041915335,-0.055453602,0.043273207
0,1,7,12,0.042637162,-0.020698838,0.08648239,0.08980769,0.0094487285,0.03495219,-0.030132245,-0.026357168,-0.12123392,-0.01368519,0.031323653,0.09861056
0,1,8,12,-0.098477155,-0.021082312,-0.10837,-0.056013644,0.006681042,0.08899419,-0.00030434132,0.044510417,-0.07133989,0.04522482,0.036938366,0.02594956
0,1,0,13,0.063594155,-0.5600734,-0.24075767,-0.006374226,0.25957912,-0.007192691,0.06768214,-0.07036344,-0.07431936,-0.023368303,0.036936622,-0.12458103
0,1,1,13,0.104270324,0.071305595,-0.05737165,0.034220405,0.033841014,-0.05023402,-0.040196773,0.042608164,0.08405084,-0.064408995,-0.035206616,-0.028940044
0,1,2,13,-0.056109343,0.08074855,0.084042616,-0.07746433,0.08373797,-0.0009228465,-0.10127221,0.10269595,0.025094153,0.02108177,0.07621471,0.101449616
0,1,3,13,0.0033926025,-0.5453544,0.054436743,-0.019901527,0.032968163,-0.06636669,-0.122652866,-0.0155787775,0.00643181,-0.013446495,0.10465591,-0.023455016
0,1,4,13,-0.07854832,0.068275906,-4.8053458e-05,-0.07672815,0.024311166,-0.084991924,-0.06478269,-0.09316011,0.018691132,-0.052374847,-0.10343308,0.024382524
0,1,5,13,-0.08146007,0.10719181,-0.08098631,-0.10432206,0.0687588,-0.05072868,-0.026638426,-0.10002315,-0.010020622,0.085686125,0.08920305,0.014338277
0,1,6,13,-0.06741481,-0.40455636,0.016766706,-0.049201295,0.13568614,0.0060713794,-0.14816585,0.09922806,0.052626155,-0.049282245,0.07267318,-0.07180884
0,1,7,13,-0.027968466,-0.008190475,0.046324767,-0.027706694,-0.05314111,0.07567109,-0.016902218,-0.002550191,0.038563408,0.068951905,0.010717507,0.06515411
0,1,8,13,0.06456817,-0.07971556,0.0327887,-0.11903666,-0.054593112,-0.07791079,-0.070098445,-0.099144354,-0.011789601,0.03176407,-0.07699944,0.07709577
0,1,0,14,0.069636144,0.3048259,0.22913396,-0.18000713,0.2910289,-0.21259862,-0.0766865,0.044905525,-0.010099361,-0.07234039,-0.08082832,0.063137315
0,1,1,14,0.036756124,-0.028597206,-0.08361307,-0.091325864,-0.10449407,-0.07929559,-0.033357017,0.050627287,0.00861614,0.14679074,0.124412104,-0.110864125
0,1,2,14,0.02670697,-0.030239902,0.035486527,0.019841414,-0.06677141,-0.090251334,0.0067921504,-0.065037385,0.055592798,0.0023600927,0.051111557,0.040115587
0,1,3,14,0.1031043,0.5151004,0.32529792,-0.1839727,0.2766297,-0.041313507,-0.046899006,-0.10428879,0.14542584,-0.048106108,0.017755719,0.014940371
0,1,4,14,0.046348806,-0.08329366,-0.08326492,0.03143752,-0.070219934,0.06998789,0.1382813,0.014693828,0.10153114,-0.06377766,-0.06179778,-0.106031284
0,1,5,14,0.025650656,-0.08020368,0.091392465,0.008141492,-0.04570719,-0.05987689,-0.09885124,0.09526058,0.0031026532,-0.07510607,-0.044585034,-0.02889315
0,1,6,14,-0.10776613,0.4745732,0.27826568,-0.068085,0.00020239178,0.067521095,0.107211046,-0.22032243,-0.07393825,-0.03508715,0.05697959,-0.019392237
0,1,7,14,-0.058726713,0.0014115945,-0.12268515,0.051193397,0.01917358,-0.09448295,0.12607846,0.1110093,0.08474088,0.075304784,0.031340633,-0.056409493
0,1,8,14,0.034683958,-0.039278783,-0.023800306,-0.05432144,0.043909095,0.037770566,-0.05069399,-0.034983873,-0.09996857,0.033002507,-0.0934083,0.077936
0,1,0,15,-0.0125458585,-0.14531398,-0.13251303,0.016451858,-0.025990957,-0.029504841,-0.05837151,-0.012475256,0.0555675,0.1004024,-0.12187702,-0.003498329
0,1,1,15,0.018169727,0.05891288,0.061891373,0.015846033,-0.087488525,0.0419703,-0.015368867,0.07691433,-0.0023733599,0.08127251,0.0017709546,0.0052461103
0,1,2,15,-0.06456921,-0.08365851,-0.07101838,-0.103770904,-0.104254164,0.048541483,0.06499081,-0.03456202,0.066849954,-0.008952684,-0.049643025,0.042424195
0,1,3,15,0.065036096,-0.09554382,0.026182517,0.0594333,-0.01747737,-0.029900135,0.12475133,0.052803572,-0.027646031,0.032994766,0.08755204,-0.011239092
0,1,4,15,-0.066142544,0.015440755,-0.063625,-0.04679662,0.05019443,-0.012161749,0.0013583143,0.06487134,-0.088272214,-0.071399495,-0.04130263,-0.022589646
0,1,5,15,0.034809776,0.025203578,0.07784835,-0.087508336,0.058687538,-0.032716125,0.0351604,0.0002411902,-0.0022736704,-0.065168805,-0.07379117,0.022257887
0,1,6,15,-0.03951222,-0.046532743,-0.15034097,0.049888015,0.03320593,0.11431269,0.021519441,0.089244515,0.023370687,0.02338243,-0.072879106,-0.06996796
0,1,7,15,0.0013757704,-0.08771293,-0.12713449,0.096268915,-0.10244159,0.042465493,-0.030388527,0.094862305,-0.061105937,-0.008434739,0.050384823,0.034887247
0,1,8,15,0.05619988,0.110911556,0.06199967,-0.045407187,0.029083233,-0.04179152,-0.09943814,-0.07972765,0.09346884,-0.06363667,0.035945922,0.006423816
0,1,0,16,0.0984789,-0.94663286,-0.30169573,-0.0002681169,0.2625964,0.17578578,0.07503352,-0.17798778,-0.06595478,-0.073826075,-0.04147296,-0.06351263
0,1,1,16,0.020765707,0.029699735,-0.17724648,-0.07083484,0.052357756,0.12919566,0.02008717,0.027408496,0.11414468,-0.03820819,0.0036733989,-0.012826219
0,1,2,16,0.075590335,0.07885777,-0.068464145,0.010680597,0.04858913,-0.12017379,0.063910656,-0.10244562,0.07745881,0.10509771,0.108893305,-0.03149405
0,1,3,16,0.077537924,-0.9996577,-0.0635665,0.038971886,0.21788138,-0.13594738,0.084776044,-0.04269198,0.04134199,-0.0033988617,0.061501976,-0.064670265
0,1,4,16,0.065644205,0.08965636,0.040341344,0.023982467,-0.006241307,0.024208965,-0.008697607,0.03448603,0.0123157995,0.13109888,0.114697374,0.039002143
0,1,5,16,-0.011920084,-0.053246353,0.05898153,-0.010479736,-0.043114588,-0.0034680641,-0.068847746,0.069117434,0.09180553,-0.05365947,-0.017805623,0.08083067
0,1,6,16,-0.063144915,-0.999438,-0.13138768,-0.0026512502,0.078291826,-0.15103519,-0.09155843,0.18534744,0.064195074,0.004668609,-0.005175531,0.014693535
0,1,7,16,0.022832204,-0.10605737,-0.18113178,-0.08041147,0.07828297,0.114796124,0.091975,-0.03766747,0.043271028,0.00029660703,0.021966944,-0.09811893
0,1,8,16,-0.0022684787,0.0020863116,0.058544107,0.046971362,0.049128387,-0.036081787,-0.0106184855,-0.066190004,-0.07077767,0.02000212,0.022670327,0.021616928
0,1,0,17,-0.05774228,-0.09339207,0.17861527,0.25661656,0.15725377,-0.091862954,-0.11972274,-0.08086742,-0.013963766,-0.068045005,-0.061989732,-0.013387147
0,1,1,17,-0.01703462,0.06535324,-0.13191831,-0.051933877,-0.10733413,0.17536111,0.023850374,-0.007149568,0.09674306,-0.058924504,0.0753769,0.048600473
0,1,2,17,-0.07973947,-0.057885118,0.06774194,0.04696698,-0.048892774,-0.055420846,0.057112284,0.04013259,0.010592985,-0.092280574,-0.015512422,0.045574643
0,1,3,17,0.08738028,-0.07602904,0.0744688,0.11026239,0.10306713,-0.15065183,0.0020136316,0.08759135,0.025678588,-0.111320704,-0.037202086,-0.08225858
0,1,4,17,0.06018619,0.03306573,0.03389536,-0.12763919,0.028459562,0.040065978,0.077772886,0.050113242,-0.005581759,0.08050609,0.012546534,-0.010731369
0,1,5,17,0.10497164,-0.032937817,0.042150043,-0.055494554,-0.10291195,0.05912107,-0.033279076,0.03855077,-0.07577739,-0.049090426,0.067757115,-0.006043963
0,1,6,17,0.08984492,-0.10251125,0.06839071,0.10258043,0.20564595,-0.048975132,-0.09599644,0.056390315,-0.08722232,-0.098762676,-0.09422574,0.08243306
0,1,7,17,-0.06699895,0.049525164,-0.06217266,-0.09572016,0.054659735,0.1354143,0.0246671,0.11451532,0.044726655,0.12727149,-0.06119676,-0.0436477
0,1,8,17,-0.0066368217,-0.023951396,-0.08069791,-0.07212917,-0.00014349341,-0.024450397,0.09340299,0.03996537,0.03152874,-0.09599315,0.07803272,0.051013865
0,1,0,18,-0.013707098,0.46023268,0.2642767,-0.37154135,0.2597597,-0.18014345,-0.021831343,0.13281408,0.0069321124,-0.013175491,0.03443385,0.07795305
0,1,1,18,-0.042366806,-0.0048499107,-0.3075826,-0.15989612,0.15182407,-0.06591262,0.024017481,-0.0049293013,-0.04203305,0.09522318,0.088789456,0.029051282
0,1,2,18,0.08233392,0.027759172,-0.100209795,0.045341786,0.11909974,0.122287974,-0.0342967,-0.00233531,0.029778024,0.069501795,-0.03833084,-0.0501269
0,1,3,18,0.005801678,0.76664287,0.38386622,-0.15451607,0.14858468,-0.03273332,0.029919213,0.11432633,-0.10322644,-0.022524282,0.019756543,-0.09648607
0,1,4,18,0.036201503,-0.017594695,-0.0884726,-0.05657411,0.13370544,-0.09632204,-0.0068715406,-0.025661848,0.040660013,-0.07260482,0.105829224,0.078665756
0,1,5,18,-0.06480173,-0.07317653,0.071339674,0.04383705,0.08320114,-0.08882857,-0.019345932,-0.09123671,-0.0009956524,0.032392457,-0.06394812,0.01955662
0,1,6,18,-0.027022863,0.7166196,0.44858205,-0.1368875,0.08948722,-0.060433526,-0.14115763,0.055903003,-0.041364603,-0.019637011,0.051994722,0.06827091
0,1,7,18,0.0450663,-0.00413806,-0.19635855,-0.1553504,0.06231131,0.027416416,0.074720055,0.020043982,0.0039400784,-0.023771217,0.025893247,0.10767732
0,1,8,18,0.018625272,0.020920075,0.10706065,-0.081084184,-0.088338435,-0.021291237,0.083011426,-0.07647739,0.12272424,0.1060455,0.115251645,0.021521218
0,1,0,19,-0.07657783,0.4398196,0.18826962,-0.027446322,0.32442558,-0.03442791,-0.09200638,0.004439616,0.03774558,0.017672613,0.05115467,-0.018642297
0,1,1,19,0.09115807,-0.018731818,-0.08404268,-0.07504926,-0.038953613,0.08748163,0.05402299,0.13914947,-0.03738143,-0.106948845,0.021026654,-0.063126735
0,1,2,19,0.10357706,-0.09703745,0.06414854,-0.03693952,-0.091276735,0.091426894,0.007560335,0.09533728,-0.009292631,0.008787481,0.048341293,-0.09504363
0,1,3,19,0.08284303,0.30194333,0.054513574,-0.13224863,0.18799642,-0.22297762,-0.0885412,0.1611563,-0.10325046,-0.012613946,-0.058660056,-0.049513143
0,1,4,19,-0.03374622,-0.078099914,-0.22410579,-0.051740304,0.04755421,0.18348853,0.026200175,0.032333266,0.029930094,-0.072245814,0.024064437,-0.075408265
0,1,5,19,0.027227096,-0.08343407,0.021793373,-0.005980447,-0.0046664583,0.04367215,-0.010593742,-0.08595513,0.054762587,-0.09494187,-0.10585905,0.052928634
0,1,6,19,0.06682432,0.28868267,-0.0037166693,-0.10128132,0.16129553,-0.037822988,-0.07712089,0.09933269,-0.033586785,-0.040303987,-0.059662577,-0.0060538333
0,1,7,19,0.10541444,-0.027158633,-0.25296715,-0.1855319,-0.0049961363,0.09869875,-0.0888194,0.12238418,-0.029682858,0.13690543,0.11178226,0.026145227
0,1,8,19,-0.03306764,-0.072137445,0.03708101,0.085422575,-0.07631992,0.105764516,-0.10595635,0.029750608,0.10294738,0.061341885,0.064765014,0.010595597
0,1,0,20,-0.045621153,0.49420023,0.028543668,-0.17145558,0.29187655,-0.3428277,-0.23866335,0.33641133,0.01260182,-0.05092392,-0.0509823,-0.08552974
0,1,1,20,0.05900066,-0.06269705,-0.1652617,0.012021917,-0.047796108,-0.07428652,0.0035776861,-0.14666541,-0.028056683,0.17681359,0.1651633,0.11019231
0,1,2,20,-0.053836092,0.10319609,-0.058686867,0.12580869,0.004238677,0.095570736,-0.110732794,0.032657973,-0.027870443,-0.10436293,-0.05416065,-0.06683004
0,1,3,20,-0.036910042,0.50225395,0.24541615,-0.1113585,0.32400802,-0.23741254,-0.122367665,-0.043692492,-0.078779936,-0.053005576,0.010771882,0.066404335
0,1,4,20,0.0774711,-0.08383807,0.0013148965,-0.095024556,-0.029105118,-0.08138644,-0.016735,-0.11448497,0.051023927,-0.005655648,0.098557614,-0.0131322965
0,1,5,20,0.054225978,0.029853113,0.06122931,-0.04189965,-0.04648894,0.10352225,-0.103578225,-0.021320567,0.05453486,0.051726002,0.050004475,-0.0964123
0,1,6,20,-0.08441677,0.57142395,0.24171738,0.06755524,0.33012855,-0.18888044,0.09870865,-0.2805986,-0.10407795,0.112401195,0.000995184,0.09677786
0,1,7,20,-0.054753702,-0.072842546,-0.11901367,-0.0032615238,-0.024482891,0.011502034,-0.07315791,0.10192703,-0.07379687,-0.037219662,-0.02356618,-0.02374605
0,1,8,20,0.0940349,-0.058927406,0.015526064,0.05882506,0.024356775,-0.08353801,0.066665046,-0.004458919,-0.03964461,-0.009569982,-0.05239781,-0.08425662
0,1,0,21,-0.015949285,0.99817777,0.31046534,0.08913842,-0.19934162,-0.29019994,-0.05265718,-7.122908e-05,0.017596262,0.0863052,-0.024370348,-0.033848293
0,1,1,21,0.09039644,-0.08809873,-0.16060561,0.0013681359,-0.09773678,0.14666395,0.0050499644,0.009974017,0.12543818,0.15477407,0.008505221,-0.051438306
0,1,2,21,-0.10683974,-0.055125553,-0.008387923,0.06244553,-0.07854578,-0.06941911,-0.007324919,-0.01796814,-0.0808916,-0.032297913,0.04381133,0.053697027
0,1,3,21,0.09984287,0.999968,0.11600475,0.13295892,0.116869256,-0.0863752,0.13722174,-0.027198793,0.021404402,0.14244503,-0.1019512,-0.08254667
0,1,4,21,0.0005766378,-0.100775175,-0.006726563,0.022550864,-0.122,0.11525972,0.026580336,0.01448214,0.08997514,-0.035380032,-0.026954977,0.020261414
0,1,5,21,-0.09139127,-0.11000592,-0.022765145,0.043813232,-0.11215734,0.08134884,-0.083760664,-0.097712345,0.08772142,0.0622021,0.118316054,-0.09476381
0,1,6,21,0.067561656,0.99996907,0.20636877,0.19721979,0.18244341,-0.06709971,0.16105199,-0.1823197,-0.15967418,0.07444759,-0.031133134,0.07181857
0,1,7,21,-0.03933571,0.0119275525,-0.010019498,-0.12266377,0.004187108,0.1278602,0.12764125,0.0017479974,0.017830245,0.09167808,-0.106638364,0.1089128
0,1,8,21,-0.017996535,0.00030962378,0.070900045,0.07160233,-0.0056346296,-0.05939149,0.06879259,-0.04704748,0.0055307746,0.024688657,-0.08880094,0.09004571
0,1,0,22,0.029130517,0.8384576,0.33152276,0.065212585,-0.32783294,0.30406865,0.10290608,-0.025695562,-0.1311167,-0.0884161,0.10662471,0.04299819
0,1,1,22,0.029177355,0.070344575,0.04387587,0.1157447,-0.004855653,0.104475796,-0.13353162,0.13576308,-0.01784356,-0.14848867,0.058664013,-0.07983796
0,1,2,22,0.016552517,0.070214994,0.06338883,-0.006612801,0.025251493,0.097593926,-0.041124552,-0.11049211,0.058844324,-0.06685408,0.09612656,-0.057036705
0,1,3,22,0.044906642,0.99995136,0.15523297,0.061946247,-0.23301518,-0.05222961,-0.0016717853,0.157093,-0.119475774,-0.06859169,0.038701452,0.04818611
0,1,4,22,0.06343124,0.078444,-0.11761483,0.11049604,0.058699895,-0.019020766,0.012619712,0.11377283,-0.021301586,-0.07256353,0.023708353,0.057515062
0,1,5,22,-0.107932866,0.051587112,0.030927889,0.0008970532,-0.036854044,0.12816362,0.018272437,-0.08954145,0.04828154,0.0811891,-0.020705989,-0.03244506
0,1,6,22,-0.07665995,0.98636407,0.13366847,-0.07411179,-0.13144358,-0.14257285,-0.0658032,0.13033238,0.06580563,-0.04829657,-0.034458295,-0.060052846
0,1,7,22,-0.08770083,-0.09933856,-0.06781827,0.036384113,0.032026432,0.010997859,0.031706553,-0.024248604,-0.08819046,-0.06157706,-0.06375941,-0.078570776
0,1,8,22,0.068939365,-0.10945926,0.05056367,0.0472316,0.076694906,0.13574108,-0.066248365,-0.013561897,-0.08717728,-0.05181006,0.030688386,0.003471762
0,1,0,23,0.0042381375,-0.36014256,-0.117513284,0.08383255,-0.06447515,-0.044084422,0.09295409,-0.09981423,0.056535542,-0.12117286,0.054750554,0.04192779
0,1,1,23,0.0041247155,0.0925728,0.11316211,0.056871835,-0.08249649,-0.07024488,0.120051704,0.044768754,0.02758239,-0.025048913,0.06347924,0.09429937
0,1,2,23,-0.1033998,-0.010245115,-0.10243828,-0.12747906,-0.06527418,0.045364052,0.022605665,0.091329284,-0.103418976,-0.0020075508,-0.051523153,-0.06123152
0,1,3,23,0.010226459,-0.35015666,0.06425543,0.056404654,-0.14223053,-0.06952711,-0.057269394,-0.041937336,0.09453503,-0.019686136,-0.07754936,-0.1116085
0,1,4,23,0.0284208,-0.062231768,0.0061617545,-0.03309792,0.000607329,0.0034958743,-0.05846446,0.059460647,-0.05947263,-0.02685961,0.09721181,-0.031153359
0,1,5,23,-0.09936125,-0.10206531,0.037122525,-0.10107051,-0.054782834,-0.07320391,0.087765805,0.033447154,-0.018465387,-0.10777617,0.098694175,0.067421205
0,1,6,23,0.092848144,-0.19509523,-0.07423901,-0.062256712,-0.016241707,0.03783926,-0.034617778,0.1268661,0.113088004,-0.02439722,-0.06627447,-0.121145874
0,1,7,23,-0.10262523,-0.026768446,0.071996436,0.09228459,-0.030890187,0.008922126,-0.0077234963,0.03781454,-0.08386472,0.061558623,0.045704857,-0.0608436
0,1,8,23,-0.0397253,-0.106694035,0.021061324,0.050394714,-0.026433583,-0.069097765,0.07969602,0.09794428,0.04567896,-0.08071525,0.03764988,0.028660841
0,1,0,24,-0.004445838,-0.8756914,-0.2564263,0.0028702484,0.14829427,-0.14813554,-0.0328861,0.09130092,-0.08624984,0.06828559,0.05777515,0.01774128
0,1,1,24,-0.031760354,0.10418824,-3.3701086e-05,-0.10859624,0.0055272314,0.17538905,-0.07735557,-0.011242385,0.045140553,-0.029472336,0.028701497,-0.10937486
0,1,2,24,0.10918302,0.03318303,0.01807823,-0.03716046,-0.038739074,-0.015563464,-0.026719704,-0.06438279,-0.07718051,-0.091616094,-0.057104662,0.055308647
0,1,3,24,0.0844839,-0.962748,-0.07409099,-0.005817981,0.18855128,0.13364221,-0.065436736,0.07766684,0.056258895,0.064204454,-0.06796885,-0.08983073
0,1,4,24,-0.048720706,-0.0018009618,0.079541095,-0.13742314,-0.084222,0.069064885,-0.025550812,0.09707351,-0.09866741,0.12693729,0.11023781,0.09204591
0,1,5,24,-0.06624603,-0.034580864,0.08901078,-0.10467237,-0.021976477,0.0032298246,-0.0062042624,-0.03728827,-0.10893157,0.010439303,0.034663416,-0.08168891
0,1,6,24,0.0058234115,-0.9083157,-0.07102936,-0.04381977,0.11017806,-0.0024918544,0.034946732,-0.037515804,-0.08775902,0.010569877,-0.13624758,0.06054768
0,1,7,24,-0.013455713,0.05780237,0.066054374,-0.14425616,-0.1175432,0.14349075,-0.013872923,-0.07561425,0.09975748,-0.0015585951,0.10553274,0.09858092
0,1,8,24,-0.058508445,-2.4318695e-05,-0.05948725,-0.04216122,0.035837486,-0.0028446692,0.008353315,0.09156198,0.084178075,0.09416706,-0.023185791,-0.0888147
0,1,0,25,0.056221176,-0.04130981,-0.16524331,0.25120744,-0.38913465,0.84603196,-0.0351967,-0.45283166,-0.08864989,-0.070141755,0.046829596,-0.015006313
0,1,1,25,-0.021374492,-0.019302778,0.15630993,0.028506082,-0.010016974,0.118953,-0.11568616,-0.15212128,-0.15926489,-0.07499585,-0.053280894,-0.0053362176
0,1,2,25,0.048714925,0.028725035,0.055071093,-0.002399859,-0.06813265,-0.090390645,-0.045508064,0.029145665,0.026186971,-0.040483303,0.07786946,-0.03218048
0,1,3,25,-0.1171281,-0.33866468,-0.15549234,0.27128634,-0.29097936,0.2898992,0.07685822,-0.040329278,0.032633908,-0.16350481,-0.04732139,-0.07191274
0,1,4,25,-0.0005254485,0.059206285,0.008009386,-0.0225432,0.040986564,0.1697987,-0.08270451,-0.1667954,-0.004601488,-0.11448906,-0.08096383,0.041276775
0,1,5,25,0.010688746,0.083649285,0.08645748,0.029823173,-0.08920179,-0.020314632,-0.06091265,0.1006544,-0.0029653336,-0.057694703,0.020976396,0.014712431
0,1,6,25,0.020074517,-0.39727953,-0.3751921,-0.029423159,-0.30695453,-0.17471491,-0.049534764,0.14232823,0.06713067,0.015799785,-0.039021134,-0.09989386
0,1,7,25,0.014849181,0.0723268,0.038598817,0.06407126,0.18516372,-0.012857511,-0.1777263,0.024416858,-0.13971935,-0.061585974,-0.0917819,-0.093778744
0,1,8,25,-0.08889452,-0.022966176,-0.06870556,0.050144766,-0.09708346,-0.06475987,-0.09413712,0.0493562,-0.058039725,-0.045257065,-0.07322089,0.040199615
0,1,0,26,0.026476517,0.11931084,0.037300292,0.034062464,-0.002768605,0.1254102,0.024235541,-0.110775165,0.02578896,-0.052185226,-0.044195727,-0.06777448
0,1,1,26,-0.017659312,-0.035020366,0.00806258,0.010789994,-0.12300853,0.14688753,-0.008064001,-0.038429983,0.12944192,-0.035249855,0.0020839246,-0.03810215
0,1,2,26,-0.06691955,0.10387359,0.02713468,-0.07971256,-0.04186796,-0.07207172,-0.022367254,-0.1027434,0.042344533,0.071392775,0.09456449,-0.106359825
0,1,3,26,0.06474531,0.04054194,-0.09910292,-0.106930874,-0.093277685,0.09517189,-0.018879844,-0.006246291,-0.04918131,0.015195207,0.011852583,0.00041638504
0,1,4,26,-0.053094596,0.025357611,-0.088578396,0.00014326938,-0.021326534,0.02218077,-0.13840233,0.0082816435,-0.08429841,0.050083593,0.08377105,0.08054032
0,1,5,26,0.002044907,0.031872146,0.023275428,-0.011070681,0.08845114,0.013725417,-0.074195534,0.005572915,-0.056069255,-0.05988828,-0.006498928,0.10935927
0,1,6,26,0.022770673,0.022969782,-0.009910986,0.08064576,-0.013232134,-0.1646595,0.017926631,0.10137763,0.08756111,-0.07180045,0.05114408,-0.085559115
0,1,7,26,-0.042102005,-0.034576923,0.03143886,0.07069335,-0.08193859,0.011173803,0.056810234,-0.13454822,0.05233342,-0.028694384,0.08830829,0.093869455
0,1,8,26,0.051817227,0.057606556,0.07363813,-0.01895078,0.073453054,0.05693401,-0.020323671,-0.04296788,-0.103439175,0.08876853,-0.10157155,0.04907734
0,1,0,27,0.05346559,-0.059954748,0.11021355,0.33284098,-0.29800656,0.36218077,0.26156053,-0.4765673,-0.11023424,-0.026563734,0.08201672,-0.0017184129
0,1,1,27,-0.12303448,0.023155369,-0.038136076,0.14388387,-0.016142957,0.021413669,-0.22848925,-0.09762708,-0.008701159,-0.027118802,-0.027650071,0.022779845
0,1,2,27,0.04074022,0.06083203,-0.041772217,0.06402559,-0.09385875,-0.111158825,0.097599514,0.049074955,-0.09658068,-0.07893239,-0.037063763,-0.03299097
0,1,3,27,0.051647626,-0.16624136,-0.11255893,0.10941892,-0.19930741,-0.0064588822,0.06135129,0.038242813,0.017821178,-0.013310111,0.07211613,0.05505948
0,1,4,27,-0.069323465,-0.07778916,-0.03408158,0.049115356,0.112930365,-0.00012430278,-0.16360001,-0.16408375,-0.15567046,-0.11230595,-0.08528648,-0.10818972
0,1,5,27,-0.101848274,0.10129728,0.009514093,-0.08928683,0.029479656,0.06392113,0.0698799,-0.0866949,-0.036473133,0.10499621,-0.101404175,-0.041308507
0,1,6,27,-0.034101754,-0.09609928,-0.2612076,-0.006425737,-0.014399038,-0.19774307,-0.020987274,0.41795835,0.21204238,0.06359869,-0.104497686,-0.06518046
0,1,7,27,-0.06674685,0.04036244,0.120283805,-0.075496875,0.05966518,-0.16726364,-0.025985405,-0.0014771094,-0.04037203,-0.0052404753,0.12092934,0.10125745
0,1,8,27,-0.056471147,-0.0032032207,-0.070458055,-0.09879147,-0.063698575,0.046493534,-0.07458827,-0.09875805,0.04637668,-0.09649825,0.10748003,-0.094359785
0,1,0,28,-0.07961923,-0.45610562,-0.14075303,0.10432558,-0.08279937,-0.03176618,0.0475076,-0.028826213,-0.07665554,-0.02712847,0.04218661,0.051025692
0,1,1,28,0.045899376,-0.09208376,-0.02363803,-0.0057090465,-0.077845864,0.0072849463,0.0034083363,-0.030297505,0.0072226385,-0.11636238,-0.0062000453,0.09494262
0,1,2,28,0.10005716,0.07505991,0.096989,-0.05382427,0.047814317,-0.015020817,0.03699971,0.064431466,0.0031195385,-0.006002495,0.087596,-0.06317108
0,1,3,28,-0.02686581,-0.43465275,-0.06638919,-0.011684338,-0.10207054,-0.039227802,0.01771429,0.12155457,0.0745942,0.015672399,-0.06734128,-0.0067564035
0,1,4,28,-0.09398731,-0.00712654,-0.040750425,-0.07629959,0.0692199,-0.10946586,-0.05957721,-0.0038428172,-0.036431715,-0.10387648,0.078499794,-0.0076188743
0,1,5,28,0.08434378,-0.038628854,-0.0027730167,0.03583232,0.0040587345,-0.073989265,-0.10063549,0.08399276,0.060243215,-0.056721117,0.023004366,0.062039725
0,1,6,28,0.090343095,-0.532559,0.008637306,-0.016640818,0.008295101,0.078870796,0.07982045,0.12961003,-0.07145946,0.07313513,-0.04693596,0.024728524
0,1,7,28,-0.08518352,0.05698394,0.16578327,-0.018517671,-0.016678235,0.04134323,0.12725377,-0.035056934,-0.084614515,0.0613401,-0.09360104,0.060396887
0,1,8,28,-0.050187204,0.049896874,-0.08738658,-0.08657313,0.0939045,0.108511016,0.03255666,-0.09337514,0.03495164,-0.031885598,0.055836912,0.016298927
0,1,0,29,0.015294622,-0.312491,0.08324514,0.33883536,-0.00013755666,0.27296835,0.1585516,-0.4044396,0.047782175,-0.10500593,0.10213635,-0.002506228
0,1,1,29,-0.0966314,-0.012117282,-0.045900438,-0.08561071,-0.04615993,0.08847791,-0.19550419,-0.11035628,-0.09761727,-0.07871478,0.053460326,0.027924098
0,1,2,29,-0.034476858,-0.012622409,-0.037796244,0.0698456,-0.0414245,-0.03699592,-0.012649976,-0.052333117,0.06012929,-0.023009213,0.048362587,0.016220935
0,1,3,29,0.09348761,-0.576166,-0.23348014,0.116673514,-0.18607433,-0.05325715,-0.0038696914,0.08798771,-0.04708982,0.041236747,0.055906285,0.13854794
0,1,4,29,-0.033985976,-0.02724009,-0.0038065878,0.079286784,0.034933925,0.06324232,-0.15591864,-0.09549369,-0.075456955,-0.020740384,0.05433972,0.039330773
0,1,5,29,0.014466877,-0.10789887,0.03546775,0.12998341,-0.059348796,0.08360865,-0.09961394,0.10536561,-0.061180256,-0.06460549,0.012660919,0.099571235
0,1,6,29,-0.07922685,-0.53829426,-0.24270207,-0.15481977,0.01786543,-0.18938746,0.0123061715,0.27882528,0.14633319,-0.05608658,0.08871671,0.11605417
0,1,7,29,-0.117652304,0.049126096,0.13199094,0.01795672,0.050069883,-0.07042053,-0.014838352,-0.013617525,-0.062155638,-0.008457555,0.06608191,-0.017019063
0,1,8,29,-0.028196162,-0.019820385,-0.10395653,-0.026802793,-0.077924415,-0.025900016,0.026038848,-0.059468973,0.09437373,-0.031118667,-0.0031762738,0.10794812
0,1,0,30,0.055035546,0.28442362,-0.0017674188,0.112067826,-0.020909823,0.0074572107,0.03097824,0.091338776,-0.045595422,-0.05900214,0.09377806,0.08264246
0,1,1,30,-0.019527705,0.023344226,-0.124187045,-0.01862111,-0.03273354,-0.01293388,-0.073971204,-0.028520906,-0.091770165,0.046830982,0.12512353,-0.011818089
0,1,2,30,0.044711266,0.019780807,0.045645215,-0.053055078,-0.058529936,-0.08088543,0.0043350756,0.07031114,-0.07063822,-0.025735797,-0.0024404696,-0.013506323
0,1,3,30,-0.0024806438,0.35902387,0.13080736,-0.039511744,0.1559871,0.016435906,-0.024791352,0.08771622,-0.10075312,0.08195269,-0.052820638,0.052234713
0,1,4,30,0.014122526,0.09878754,0.0021312549,-0.1157594,0.011991112,-0.045886207,0.076333836,-0.066074096,0.110525794,-0.09060429,-0.033994563,0.10512502
0,1,5,30,-0.018377215,0.00031231344,-0.015195422,-0.086014815,-0.062160123,-0.04926737,0.051343538,-0.054787822,0.09864534,0.06468671,-0.09184039,-0.10320953
0,1,6,30,0.0403436,0.2600059,0.079485476,0.1163989,0.09156196,0.14253256,0.07609248,-0.060232133,-0.0774682,0.075873226,-0.04538681,0.08933374
0,1,7,30,-0.09825905,-0.003047198,-0.040495753,-0.070224136,-0.0150865195,-0.019933553,-0.041682217,0.01984673,-0.0028222168,-0.05140103,0.000788994,0.03220979
0,1,8,30,0.027465548,0.03371384,-0.105034575,0.055999454,-0.03987079,-0.07891301,-0.04969283,-0.06330437,-0.04480742,-0.055591103,-0.0009087857,-0.079581544
0,1,0,31,0.055873223,-0.5289101,-0.14322735,0.117713206,0.054009333,0.29594854,0.15938163,-0.22329322,0.032190707,-0.08901396,0.03975778,0.04166149
0,1,1,31,-0.076350234,-0.09448801,0.11210221,0.04487519,0.07685192,0.0813968,0.00038361715,0.027925147,-0.11762767,-0.163318,-0.070848495,0.0025848672
0,1,2,31,-0.015456415,0.033888914,0.06621865,0.14499299,-0.029274898,0.11298357,0.11054356,0.028938107,0.06721988,0.011297453,0.110958844,-0.0025244057
0,1,3,31,0.030652585,-0.45608407,-0.074098304,0.0061329426,0.027488464,0.038425855,-0.06416129,0.096283734,-0.052321605,-0.04896086,0.019656941,0.108470276
0,1,4,31,-0.011830015,0.06371219,0.011969639,0.026929395,0.08011903,0.09475314,0.09420984,0.04620775,0.06027726,-0.051557325,0.038147055,0.08000379
0,1,5,31,0.08631047,0.1089504,0.025376476,0.082194716,-0.0008463747,0.035258118,0.020927541,0.009033836,-0.038397234,0.026372144,-0.022956153,-0.018459879
0,1,6,31,0.03110567,-0.5225577,-0.016324105,0.022521116,-0.17432266,-0.23704366,0.03269803,0.11943637,-0.055492423,0.046284907,-0.07084438,0.0062790094
0,1,7,31,0.061399188,0.01532606,-0.011409223,0.039341718,-0.08750006,-0.05872226,0.08373081,-0.10291014,-0.13454773,0.08664997,-0.114674576,-0.089432344
0,1,8,31,-0.008228038,0.08083669,-0.03701254,0.005058218,0.16332288,0.13426107,0.0058619156,0.05677574,0.007923336,0.051118575,-0.06036649,-0.0062377825
0,1,0,32,-0.08245548,0.31292534,0.037653767,0.02323336,-0.21608117,0.50888664,0.15335439,-0.35814142,0.029593213,0.08784949,0.10338705,0.083716966
0,1,1,32,-0.031179382,-0.10347984,0.06575637,0.107116535,0.08232815,0.0037007385,0.043942098,0.0031832699,-0.003707251,-0.07401074,0.024753787,-0.09300469
0,1,2,32,-0.04813361,-0.08059093,-0.027991042,-0.061468955,-0.013087515,0.0076757404,0.015713327,-0.025454134,0.042683538,-0.06416106,0.10889842,0.027376391
0,1,3,32,-0.07613367,0.29502735,-0.09853646,-0.066482194,-0.25172305,0.31666073,0.052140407,0.0912905,0.10221327,-0.021156741,0.055573758,0.08806922
0,1,4,32,0.07448236,0.087066226,-0.1061562,-0.10980476,0.009468466,0.04975908,-0.065545,0.05907526,-0.00085651415,0.051618963,0.06850257,-0.011067122
0,1,5,32,0.018399006,-0.013134971,0.031253107,0.034431968,-0.1046907,0.09406981,0.10076713,0.028015845,0.097076386,0.11447337,0.094044745,-0.08913982
0,1,6,32,-0.0049721873,0.14928955,0.05170011,-0.027451156,-0.23216915,0.037990123,-0.09845358,0.10811886,-0.016154865,-0.03954024,-0.09157655,-0.07683232
0,1,7,32,-0.0102673005,0.08780085,-0.10115502,0.07276175,-0.076224275,-0.005799137,-0.0034662571,-0.003444751,0.032599825,-0.03942696,0.040765636,-0.06715764
0,1,8,32,-0.086661935,0.069262765,-0.050397504,0.043543424,-0.10962615,0.009111214,-0.0492228,-0.09907038,0.037600026,-0.10492998,-0.08674824,0.05525265
0,1,0,33,-0.040061507,0.47411513,0.198621,-0.19729865,0.30511692,0.36276126,0.33884865,-0.4190966,-0.20761271,0.056750737,0.041247934,0.023942003
0,1,1,33,-0.005441063,-0.063936405,0.008852187,-0.06688014,0.052309137,0.065997325,-0.028578512,-0.0093570445,0.13086633,0.028386291,0.0027133625,0.040245406
0,1,2,33,0.052002702,-0.004644938,-0.03674461,-0.017251398,0.06951617,-0.10494154,0.01677876,-0.0031600893,-0.07536473,-0.0025661911,0.12170022,-0.031140141
0,1,3,33,-0.012706214,0.5427997,0.112459175,-0.110470735,0.20355026,-0.12817332,-0.060122874,0.09946731,-0.10469975,-0.06451626,-0.09545449,-0.013452541
0,1,4,33,-0.08099198,-0.06895734,-0.072101764,-0.08748647,-0.07203544,-0.035623908,-0.043797012,-0.07717175,0.008078477,-0.007068005,0.009409307,-0.090342484
0,1,5,33,-0.088978626,-0.016637534,0.031971775,0.06439687,-0.057208575,0.00873946,0.08216924,0.042165406,-0.012974098,-0.0074834386,0.03434433,-0.05579167
0,1,6,33,0.015903238,0.5039741,0.12951775,-0.034954395,-0.045724418,-0.55624044,-0.21395524,0.43211982,-0.006574938,0.012714304,-0.108185105,0.054410502
0,1,7,33,0.043935675,0.041821636,0.014014302,-0.11836825,-0.09755865,-0.014395476,-0.03493089,-0.10467629,-0.05323033,-0.014068967,-0.07675986,-0.03265834
0,1,8,33,0.06489666,-0.10749047,0.014390044,-0.007177202,-0.064939775,0.07146611,-0.04497262,-0.014006972,-0.052297477,0.13133241,0.12237651,0.040802784
0,1,0,34,0.10772703,-0.8594335,-0.21143018,-0.045371648,0.38705665,-0.11530797,-0.10180818,-0.09273119,0.101389974,0.09539569,-0.043830212,-0.09009069
0,1,1,34,0.029602215,-0.10649628,-0.002453913,-0.0914569,-0.010942761,-0.11953441,-0.026343076,-0.08072391,0.08764126,0.08270318,0.046675436,0.04753507
0,1,2,34,0.01417655,-0.08279179,0.028398074,-0.05318424,0.10408818,0.11378423,-0.06700005,0.0070251375,-0.019931603,0.001185125,0.037677504,-0.06190765
0,1,3,34,-0.0030986015,-0.91073376,-0.1429761,0.059169672,0.16524737,0.1435422,-0.040951874,-0.060966767,-0.051097758,0.09447491,0.04947845,-0.097636424
0,1,4,34,-0.013178875,-0.01088769,0.097170085,0.012840209,-0.08269759,-0.027616398,0.029123466,-0.14514267,0.064485066,0.10111584,-0.014282368,0.059083067
0,1,5,34,0.022530822,-0.077755645,0.051128156,0.107375555,-0.0741996,-0.08344074,0.08567654,0.06274446,-0.08478632,-0.03301369,-0.09200251,-0.106106915
0,1,6,34,0.035444524,-0.84050304,0.064927086,0.05435517,0.22891448,0.13176657,-0.079891145,-0.20376381,0.124718174,-0.020139512,0.04913605,0.00040690752
0,1,7,34,0.038166836,0.013251096,0.022912318,-0.08626719,-0.04810429,-0.06881294,-0.11774781,-0.06995242,0.13163824,0.077826165,-0.009944227,-0.078639984
0,1,8,34,0.07066333,-0.10153862,-0.036716066,0.09737623,-0.09370375,0.10367038,0.05329647,-0.107083544,-0.04561514,0.071738325,-0.08077307,0.005093783
0,1,0,35,-0.026940702,0.4641221,0.102049775,-0.21391527,-0.09756071,-0.076438434,0.16216968,-0.19218536,-0.007617398,-0.08393308,-0.028327933,0.042872615
0,1,1,35,0.07506997,-0.0070842355,-0.013244764,-0.16954786,-0.15224443,0.22748138,0.09256722,0.0443765,0.05719835,0.12406148,0.04932642,-0.09560164
0,1,2,35,-0.042399075,0.0937636,0.0032897815,-0.059023343,-0.015811283,-0.054252394,0.0329388,-0.008844443,0.0437042,-0.05411269,0.009898746,0.016732477
0,1,3,35,-0.01576184,0.5535049,0.03808565,-0.008901311,0.011252757,-0.03111154,-0.09148481,0.059673328,-0.05893173,0.111645386,-0.029771127,-0.0103965225
0,1,4,35,-0.017466664,0.09879517,-0.09969168,-0.06539557,-0.02672854,0.092467465,0.031524155,0.0020035766,0.046012796,0.060474113,0.0030604315,0.09167481
0,1,5,35,-0.02176276,-0.03621021,-0.051785376,-0.092662536,-0.07173492,-0.091081746,0.027571447,-0.033613287,-0.09618912,-0.103838235,-0.08645103,0.01882764
0,1,6,35,-0.0360516,0.4683557,0.012638053,0.01904964,0.072071336,-0.08909144,-0.14575659,0.06699217,0.01721989,-0.08872393,0.011439491,0.10686714
0,1,7,35,0.089483984,0.04825128,0.0326535,-0.013466095,-0.10921525,0.164582,0.07716469,0.05586601,-0.020370781,-0.05333292,-0.0038102563,-0.043019228
0,1,8,35,-0.02401786,-0.03881727,-0.04040481,-0.103991106,-0.053365048,-0.01590796,-0.047946863,0.107622154,0.09813064,0.06654751,-0.049634982,0.034187473
0,1,0,36,-0.024496574,0.2867301,0.12601118,-0.01780856,-0.10778293,-0.34607396,-0.20045045,0.34295663,-0.045438312,0.094988234,0.0004358085,-0.10649307
0,1,1,36,0.0100422185,0.020703785,0.122084565,0.026739836,0.052972842,0.07616596,0.017802956,0.02267556,-0.09796196,-0.0711126,-0.04997595,-0.03979794
0,1,2,36,-0.08927616,-0.020889215,-0.078014,0.14053276,-0.026073406,-0.002351251,0.0095278025,-0.0072428137,-0.12683828,-0.00087352964,-0.0527919,-0.08698508
0,1,3,36,0.099855065,0.4892003,0.17068213,0.008954624,0.022050966,0.119994,0.08716023,-0.06795441,0.08815,0.06541448,-0.0020528955,-0.04890511
0,1,4,36,-0.10904174,-0.09215893,-0.05394029,0.06762061,-0.116739355,-0.06466245,0.085593164,-0.08043611,-0.018014152,0.04691054,0.003364578,-0.030681811
0,1,5,36,0.073750064,0.08932624,-0.06284152,0.047070146,0.027031409,0.16620061,-0.05099841,0.10745586,-0.045661584,0.07625952,0.03245623,0.079415865
0,1,6,36,-0.050339375,0.35136607,-0.050115284,-0.16461349,-0.036654495,0.27310523,0.14763321,-0.16903599,-0.005593875,0.029961862,0.06572753,0.047046874
0,1,7,36,0.09327098,-0.095898256,0.010845688,-0.027921114,-0.122347996,-0.08082963,0.042953756,-0.030269515,-0.0072841565,-0.050322853,0.024212522,0.10046757
0,1,8,36,-0.011566826,0.062936746,0.0536742,-0.042794444,0.008727943,0.066559955,0.03516803,0.07849958,0.076080956,-0.08557918,-0.1216543,0.01428815
0,1,0,37,-0.016548082,-0.054103754,-0.10257338,0.14475392,-0.24734308,-0.052765597,-0.110215954,0.2363094,0.03631267,-0.095422685,-0.007987164,0.08795642
0,1,1,37,0.024420694,-0.002788186,0.14809036,0.12580077,0.113762595,0.05141798,-0.23711246,-0.042247076,-0.14888655,-0.079110965,0.04059326,-0.029846296
0,1,2,37,0.045002315,-0.045359746,-0.06891048,-0.106555484,0.06317577,0.0021272379,0.07610411,0.081669204,0.052818574,-0.036093745,-0.057014283,-0.08990219
0,1,3,37,0.06538029,-0.12987362,-0.055508982,0.17950447,-0.047042232,0.1717079,-0.10284837,-0.09866264,-0.0254443,0.020614494,0.09288833,0.0029698315
0,1,4,37,-0.09955982,-0.1003705,0.00081256655,-0.044481,0.10590894,0.059452523,-0.19919212,-0.14487684,0.0064084646,-0.15780531,0.05514553,0.10039628
0,1,5,37,-0.033877883,-0.07249914,-0.029785857,0.060788143,-0.12349861,0.05283686,0.008895844,0.03168302,-0.09615851,-0.042723093,-0.042418763,-0.002536364
0,1,6,37,0.050513744,-0.12121914,-0.043785747,0.037140433,-0.18858807,0.09770899,0.19204046,-0.20978878,-0.01593989,-0.081901364,-0.075141765,0.08159693
0,1,7,37,-0.08395621,-0.08563995,0.11711587,0.00070027076,-0.004682927,-0.12888147,-0.007885376,0.04580834,-0.028626027,-0.026188236,0.056616038,-0.046466008
0,1,8,37,-0.08640371,0.025282748,-0.08787516,-0.08887396,-0.1368443,0.06119859,-0.10853067,0.031539224,0.02846421,-0.0027708353,0.008084007,-0.081311636
0,1,0,38,0.019754585,0.119649395,-0.14762312,-0.25607565,0.0770648,0.06929622,0.0868114,-0.07272137,-0.009208461,0.018968144,-0.07698496,0.06574098
0,1,1,38,0.009186699,0.080058776,0.0025035306,-0.10670371,0.06145587,-0.015784329,-0.10173373,-0.091295,-0.0771219,-0.0615528,0.04555335,-0.09756793
0,1,2,38,0.022040602,0.06423641,-0.09385635,-0.065083615,-0.026361713,-0.042004842,-0.013347112,0.014687695,0.015611091,0.027392214,0.076293,-0.10299548
0,1,3,38,-0.065060385,0.19760048,0.01947414,0.026476588,-0.054291144,-0.1234557,0.048085585,-0.04984644,0.0031103836,0.00045919715,0.08975432,-0.015568983
0,1,4,38,0.038961884,0.10885959,0.029649133,0.067773186,-0.070797406,0.025916614,-0.03905149,0.06542222,-0.001712319,0.017760804,0.08584477,0.03962066
0,1,5,38,-0.09885305,0.076118656,-0.012468249,0.010917882,0.10406412,0.11585074,-0.10392388,0.04114998,0.061508127,0.024439393,-0.0925859,-0.06518893
0,1,6,38,-0.0021423318,0.08920077,0.09977991,0.062231548,0.046093196,0.013753807,-0.15928347,0.094057746,0.08509326,-0.080016024,0.07237409,0.11023369
0,1,7,38,0.027849073,-0.076903716,-0.107305914,0.06204995,-0.052323733,0.05575144,0.0672158,-0.038335685,0.044178262,-0.06767591,0.013194682,0.024442308
0,1,8,38,0.030780157,-0.04064337,-0.035613365,0.05295738,-0.017840195,-0.047901668,0.040137537,-0.0808398,0.057775814,-0.0007849324,0.020945152,0.07082198
0,1,0,39,0.0812792,0.55010575,0.1729713,0.169732,-0.311776,0.34842765,0.09928555,-0.117612466,-0.16828363,-0.06772117,-0.03491351,-0.008327504
0,1,1,39,-0.024027525,0.024555288,0.09467069,-0.002998959,0.13806948,-0.14812104,-0.16662803,-0.03201522,-0.07272741,-0.026487835,-0.07878368,-0.089613385
0,1,2,39,0.08622694,0.025170691,-0.040729918,-0.08706297,-0.020208716,0.08726072,-0.01370658,-0.054514993,-0.06951519,-0.09140256,-0.0857681,-0.009511761
0,1,3,39,-0.006346235,0.3701851,-0.13083069,0.12735151,-0.30447245,-0.043236434,0.046470907,0.061071385,-0.16134977,-0.09514289,-0.04130117,0.12305236
0,1,4,39,-0.055384733,0.005116433,0.10314273,0.15245646,0.1804695,-0.056100562,-0.14002967,0.013940814,-0.11382994,0.049619455,-0.093850866,0.029241808
0,1,5,39,-0.05809207,-0.05364177,0.10874554,0.003773828,-0.10081879,0.019761745,0.02434612,0.012102127,0.067906916,-0.023531491,-0.035479803,-0.0010386556
0,1,6,39,-0.09824063,0.35953873,-0.20764825,-0.07775521,-0.27878702,-0.124513425,-0.08737959,0.285103,0.020521482,-0.01752948,0.067628115,0.116739884
0,1,7,39,0.05086094,0.10547117,0.110597335,0.16756317,0.0782278,-0.039863966,-0.08661461,-0.077551775,-0.09987895,-0.127979,0.0005730102,-0.088482425
0,1,8,39,-0.0649794,-0.051918585,0.08865281,0.014102295,0.08016862,0.100199096,-0.003556475,-0.03740018,0.06482442,-0.07671826,0.03947954,-0.072250724
0,1,0,40,-0.0022875054,0.20945476,0.16246817,-0.0018683696,0.15604691,-0.05912213,-0.07170166,0.089997716,0.06449055,-0.019529551,0.12783843,0.02520357
0,1,1,40,0.114011504,-0.026060566,-0.059652343,0.079531774,-0.028944965,-0.019234976,0.076834925,0.07986056,0.07220211,0.07136538,-0.094242014,-0.023662925
0,1,2,40,0.010185565,-0.06402521,-0.025277615,0.11782506,0.06425538,0.09805071,-0.087525636,-0.045521908,-0.08349581,-0.023633242,0.02259281,0.08339956
0,1,3,40,0.100212574,0.26788205,0.18732452,-0.00966465,0.08186511,0.08762286,0.08659776,-0.032045342,0.03612883,-0.0077232374,-0.04952101,-0.035787195
0,1,4,40,-0.022021202,0.04489792,0.006716936,-0.062093996,0.04906745,0.009341649,-0.079638064,-0.034247365,-0.034054615,0.053709663,-0.0630017,0.06365182
0,1,5,40,0.0633033,0.0049296767,-0.08953421,0.06989853,-0.010373685,0.11581959,0.025168873,-0.019041687,0.0699571,0.014541026,0.08600015,-0.1094961
0,1,6,40,-0.029752253,0.29197785,0.0705712,0.014177226,0.07267406,0.05947686,0.102344446,-0.038689826,-0.024715777,0.05604274,0.062079918,-0.076613784
0,1,7,40,-0.035616703,0.06158913,0.005758163,0.0963082,0.05365711,0.05997236,-0.005664521,-0.07782221,0.14020663,0.043620497,0.10531242,-0.08432591
0,1,8,40,0.059974138,0.092490725,-0.06859329,-0.08048934,-0.048450094,0.06387212,-0.075144485,-0.067197815,-0.00587295,0.027711656,-0.057404105,0.023327328
0,1,0,41,-0.03321181,0.20341158,-0.12044432,-0.18247171,0.09194822,-0.34164065,-0.18548474,0.26481387,0.02550329,-0.0588508,0.038473662,-0.046329737
0,1,1,41,0.027022664,-0.06352286,-0.115408145,-0.08259932,0.031494375,0.16279991,0.071093,0.020326555,0.116888694,-0.04350082,0.15821092,-0.014325038
0,1,2,41,-0.04875813,-0.076502845,0.0064531565,0.014930334,-0.046634115,-0.07644119,-0.08674782,0.023370408,0.13205272,-0.07699951,0.08987552,0.059952416
0,1,3,41,-0.052270874,0.18249881,0.0032770252,-0.05087862,0.2818777,-0.03654531,-0.059288524,-0.098508656,0.065740824,0.005792628,0.120369375,-0.020365126
0,1,4,41,0.06715688,0.106849946,-0.03226684,-0.15267102,-0.080884896,0.1743286,0.033107903,0.114112526,0.0224997,0.10832027,0.048913274,0.02466271
0,1,5,41,0.018908998,-0.034417167,0.051863827,-0.1305159,-0.0311863,-0.15088508,0.027562432,-0.104954734,-0.021560049,-0.07247034,-0.043019477,-0.036100477
0,1,6,41,-0.08080175,0.26163408,0.1253571,-0.040693376,0.1441442,0.13965677,0.13078995,-0.17581725,0.020559253,0.09439413,-0.030655403,0.097560614
0,1,7,41,-0.012790959,-0.04510416,0.0051522837,-0.022191886,0.031035904,0.07390221,0.059483573,0.020653002,0.121510565,-0.03893107,-0.054551948,-0.10117451
0,1,8,41,-0.02708728,0.0759461,-0.029512435,-0.13102557,-0.11122572,-0.18493044,0.07073473,0.06058324,0.01235487,0.05450356,-0.056573115,-0.08353321
0,1,0,42,0.06942328,0.4211742,0.2224055,0.069167145,0.0119589735,-0.024513444,0.08352602,0.006138265,-0.09536445,0.013789486,-0.026283788,-0.046537213
0,1,1,42,0.053022772,0.098962076,0.059926055,-0.06583299,-0.076975346,-0.06733892,-0.00033983245,0.12048495,-0.1314845,0.028053403,-0.025232805,0.011179239
0,1,2,42,0.031241687,-0.05379384,-0.08578518,-0.041811567,0.024319652,-0.05429189,0.029502071,0.10775804,-0.036964685,-0.06308323,0.009420376,0.1025367
0,1,3,42,-0.0041763256,0.37836307,0.13205387,0.07101241,-0.040124,0.004814583,-0.03527409,0.073343225,-0.062756404,-0.047905795,0.06880396,0.07649647
0,1,4,42,-0.04369965,0.08931609,0.1411932,-0.060960058,-0.101862855,-0.04335585,0.03474498,-0.10313996,0.00029910286,0.004462011,-0.10076849,-0.10816397
0,1,5,42,-0.07101453,-0.05837949,0.0496087,0.024980977,0.11000897,-0.092960455,-0.042360812,0.05583463,0.052198537,0.097498044,-0.05192274,0.107945256
0,1,6,42,-0.011474289,0.3223826,0.027666187,-0.06388011,-0.03994418,0.0055914694,0.022892892,-0.032049645,-0.049913052,0.08719455,-0.01405142,0.011175088
0,1,7,42,-0.0632422,-0.07157861,0.14112744,-0.006112051,-0.1361119,0.07381446,-0.09167189,-0.17039797,0.11830579,-0.07435606,-0.08656386,0.09375436
0,1,8,42,0.01870863,0.05822075,-0.057893965,0.049560577,-0.041112307,0.120157175,-0.09507334,-0.06173265,-0.022752032,0.03546296,-0.013719108,0.051985152
0,1,0,43,-0.08524608,0.42697096,0.13176094,-0.041365843,0.0013248462,-0.007424799,0.045083467,-0.05894898,-0.08230192,-0.008950502,-0.11314564,0.015416339
0,1,1,43,0.016706053,-0.06096513,0.039532304,-0.11435541,-0.09138366,0.15603162,-0.06691107,0.06757095,0.011209911,0.12137108,0.116453126,0.04603114
0,1,2,43,-0.03333024,-0.045744605,0.0028275102,-0.1091002,0.088388175,-0.100825526,0.08675475,-0.059809607,0.05452401,0.092970565,-0.09059466,0.07832583
0,1,3,43,0.07840128,0.37306303,0.02168033,0.023676552,-0.026738865,0.081083976,-0.09277035,-0.0005092828,-0.09780048,-0.12311483,-0.07313816,0.07121949
0,1,4,43,-0.027691685,0.053339012,-0.016653683,-0.10325862,0.011406905,0.19607069,0.13271841,0.078372985,0.07158757,-0.048297398,0.129786,-0.046608247
0,1,5,43,-0.1028255,0.060351245,0.08711169,-0.036403544,-0.09247013,-0.09030696,-0.008957334,-0.080410324,0.03327917,-0.021583926,-0.030535195,-0.06388514
0,1,6,43,0.00045031417,0.44227025,-0.0092545785,0.110447094,0.12377934,0.11519868,-0.1317569,-0.16839361,-0.00076994137,-0.06916113,-0.035551455,0.003050148
0,1,7,43,0.06122961,-0.08372462,-0.011961238,0.058668185,-0.06878447,0.17282343,-0.015025824,0.09606535,0.11764,0.03498658,0.06918232,0.031577952
0,1,8,43,0.044722952,-0.042833768,0.10434892,0.056127694,-0.037477814,-0.059752114,0.10433843,0.060313173,0.009264273,-0.08674272,-0.092582524,0.07123066
0,1,0,44,0.021586426,0.6181334,0.14817396,0.15228017,-0.6530715,0.09499793,-0.016907312,0.23486502,-0.030678738,0.07762855,-0.037572537,-0.1198139
0,1,1,44,-0.0596748,-0.029575534,0.034660075,-0.11026757,-0.044647228,0.09610413,0.06995505,0.08337463,-0.025822511,0.057947643,-0.08978057,0.10327882
0,1,2,44,-0.010398321,-0.09213,0.106271304,0.06122443,-0.060712162,0.007462483,-0.03784147,0.04402835,-0.016485961,0.0903515,0.0800596,0.080159314
0,1,3,44,0.008881684,0.570089,0.13237211,0.10891999,-0.4316042,0.27717963,0.13069384,-0.13796142,0.081966735,0.037277587,-0.11228625,-0.059590522
0,1,4,44,-0.10741249,-0.08568804,-0.12457972,-0.08130476,0.13063385,0.10146875,0.06502921,0.15156056,-0.091145046,-0.036276873,-0.060609397,0.027652942
0,1,5,44,-0.0828928,0.0014065877,-0.035025015,-0.064465195,0.029360397,-0.011761175,0.09427751,-0.04475537,0.036073826,0.10413305,0.05535482,0.09523428
0,1,6,44,-0.06515435,0.5702155,0.1561134,0.036422703,-0.45402244,0.39159375,0.36390138,-0.25706995,-0.0062395055,-0.10965904,-0.02703232,-0.0044803987
0,1,7,44,0.10732779,0.02679313,-0.1051482,0.0081022475,0.09137293,0.021950694,0.084401995,0.084027514,-0.09504083,-0.039404318,0.021347983,0.11020935
0,1,8,44,0.1077346,0.090379916,0.09499293,0.101879016,0.1001528,0.06660727,-0.06883034,-0.016301155,-0.05539214,-0.10119208,-0.021673184,0.06746488
0,1,0,45,0.054161638,0.3120167,0.0486214,-0.31498316,0.0746359,-0.27289897,-0.1817561,0.23308364,-0.0031367908,-0.053402476,-0.009793712,0.073633075
0,1,1,45,0.02868541,-0.070385695,0.004402478,-0.061539248,0.0016759306,-0.12449656,-0.14584732,0.12481212,0.07719012,0.07298858,-0.05792333,-0.013197117
0,1,2,45,-0.041211445,-0.029213771,-0.025362678,0.014912105,-0.046398584,0.014631288,-0.07045157,-0.010115281,0.06672793,-0.086666435,0.031829055,-0.08654718
0,1,3,45,0.037284795,0.52655435,0.20947164,-0.13307154,0.123397924,-0.05151357,-0.096899636,-0.13512057,0.0069136717,-0.09260569,-0.08480394,-0.05018564
0,1,4,45,0.11037458,0.039213397,0.063603856,-0.018030312,0.035746988,0.027305126,-0.1248486,0.022945678,0.0030206854,0.089711726,0.018232606,-0.060752314
0,1,5,45,0.061613765,0.051134728,0.06286212,-0.013539065,-0.09053514,-0.11765699,0.080335595,0.03939628,0.047436118,0.06743027,-0.022648154,-0.08028534
0,1,6,45,0.009334255,0.67131174,0.34452268,0.049965397,0.16469055,0.06537643,-0.041530486,-0.14712131,-0.20911469,-0.022354318,-0.021571497,-0.056577984
0,1,7,45,0.10994626,-0.09827096,-0.047975298,-0.01237182,-0.13246563,0.013936344,0.068724066,0.06358265,-0.034554936,0.09069293,0.017834414,-0.008404225
0,1,8,45,-0.029672412,0.041759618,-0.06271754,-0.02207048,0.03322706,0.027245153,0.043364145,0.08341683,-0.08553994,-0.059560698,0.025905365,0.10835298
0,1,0,46,0.01020166,1.0,0.44326806,0.055040326,-0.5352536,0.29586884,-0.10784556,-0.12037766,-0.034339033,0.005274484,0.013333291,0.030931825
0,1,1,46,0.0114531005,-0.08622938,-0.04593017,0.045755994,-0.12879832,0.04935226,-0.13638039,0.1553324,0.06747851,0.10754954,0.04896687,-0.041273847
0,1,2,46,0.11133576,0.019599475,0.101122506,0.047828853,-0.09495216,-0.07149381,-0.03737709,-0.07592341,0.12562224,0.08169978,0.021796124,-0.014203191
0,1,3,46,0.008000344,0.98602784,0.2226268,-0.011256533,-0.26563585,0.059331868,-0.31050503,0.07472323,0.067069195,0.010654333,0.019416304,0.07098868
0,1,4,46,0.048677024,0.07351441,0.015438204,-0.006997833,0.021926258,-0.017723473,0.043903098,0.10612966,-0.0035406842,0.094945,-0.07324577,0.016910829
0,1,5,46,-0.05620714,-0.10057133,0.0035767704,-0.105552346,-0.06340062,-0.0123955365,0.083265774,0.01192081,0.068880215,0.08279584,-0.062992096,0.10555478
0,1,6,46,-0.005242847,0.97839105,0.08457778,0.117836975,0.06493856,0.16026008,-0.44672695,0.17261049,-0.019489624,-0.021991119,0.018547151,0.114068255
0,1,7,46,0.02754578,0.023672245,0.009884113,-0.055824496,0.09068064,-0.08360247,0.122732274,0.10731889,0.038151678,0.0133598,-0.03692226,0.05939821
0,1,8,46,0.11087539,-0.10562289,-0.05568066,0.000550837,-0.11107133,-0.07918188,-0.053226724,0.06164833,0.12616593,0.05958696,0.046615917,-0.0755817
0,1,0,47,-0.017771393,-0.14439332,-0.089347236,0.06502368,-0.08124942,0.008658701,0.092251115,-0.022869028,0.10111407,-0.09808553,0.095892824,0.042811822
0,1,1,47,-0.06553534,-0.10780956,-0.04541666,0.058814786,0.07053665,0.055824537,0.032717064,0.08349456,0.10298689,-0.08328104,-0.08671177,-0.1016318
0,1,2,47,0.05050064,-0.090224355,-0.01795125,-0.087305434,-0.080900796,-0.009687827,-0.027765103,-0.10770643,-0.0025528641,-0.0035780629,-0.08307952,-0.076502636
0,1,3,47,-0.042785812,-0.322225,0.01825863,-0.07654971,-0.17653966,0.07064693,-0.025686648,-0.03702067,0.04548731,-0.051329162,0.08629763,0.11438857
0,1,4,47,-0.052963603,-0.06203437,0.0027737773,0.027931778,-0.005328408,-0.006748642,0.061769772,0.041065585,-0.07675255,0.053072028,-0.13257451,-0.045676164
0,1,5,47,-0.0889374,-0.041728072,-0.064788565,0.049273767,-0.02226764,-0.053174745,-0.05235811,-0.030612059,-0.07647475,-0.1073858,-0.020306367,-0.06605726
0,1,6,47,-0.08988098,-0.16126564,-0.09452795,0.009976723,-0.17751874,-0.070403896,-0.15660636,0.10260245,0.08428934,-0.058669813,0.094366536,0.124042265
0,1,7,47,0.0095419865,-0.09166619,0.0120872585,-0.013930985,0.028073417,0.07733985,0.07737375,-0.12331037,-0.053470746,0.02692852,-0.0658349,0.10813635
0,1,8,47,-0.10306523,-0.0827393,0.016183116,-0.03315956,-0.05109436,0.01410432,-0.015186705,0.04209443,0.0010450176,-0.04154861,0.005112364,0.08990345
0,1,0,48,0.08196684,-0.31969827,-0.3136602,-0.059139732,0.13405931,0.1274833,-0.04067812,-0.1558764,-0.1613944,0.04194358,-0.026952418,-0.064082235
0,1,1,48,0.030247439,-0.050426286,-0.055652056,0.023126222,-0.017669579,-0.17203824,0.0011971358,0.11334163,-0.027723048,-0.028637579,0.1209936,0.10894758
0,1,2,48,-0.10636807,0.09640751,-0.0044421107,-0.0617544,-0.029964048,0.077072695,0.0420829,0.07044377,-0.018815745,0.020001844,0.062461723,0.013089456
0,1,3,48,0.10913674,-0.3091195,0.17240855,0.1897311,-0.039142616,0.14010161,-0.1300187,-0.15129225,-0.08902475,0.13257758,-0.05844114,0.009287495
0,1,4,48,0.12159216,-0.04619331,-0.14726582,-0.17095597,-0.16812088,-0.18769278,0.12680873,0.123407915,0.06762979,0.11154278,0.12812117,-0.08542677
0,1,5,48,0.073256865,-0.040376544,-0.08259013,0.07470846,0.012328551,-0.12972353,0.110349305,0.1066931,-0.029344652,0.0591672,0.107611395,0.019388817
0,1,6,48,0.1101928,-0.29958436,0.16885214,0.2387915,-0.0053438614,0.27375594,-0.17532504,-0.06727894,-0.1681753,-0.03607842,0.11105674,0.086198285
0,1,7,48,-0.068539664,-0.0788175,-0.0900627,-0.0901558,-0.061237775,-0.13031262,0.027113704,0.07923761,0.14533345,0.052024033,0.14711545,-0.07553302
0,1,8,48,-0.06056514,0.059241198,0.058813103,0.081027806,-0.0012790734,-0.013585473,-0.07235542,0.035683744,-0.045450106,0.117096536,0.084512,0.010968007
0,1,0,49,0.09410114,0.9192259,0.35735404,-0.345729,0.55425644,-0.27294564,0.0010486052,-0.050294504,0.00037136272,-0.0057267398,-0.056137227,-0.14385559
0,1,1,49,0.031369746,0.109217964,-0.17090198,-0.033982545,-0.10541794,-0.0048014373,0.20351432,0.109075084,0.1894871,0.0050643752,-0.066048816,0.0014909655
0,1,2,49,-0.016492397,-0.08366699,0.054355793,-0.10979195,-0.034781855,0.024448868,-0.040394463,0.09878286,-0.04159536,-0.022081824,-0.0005385298,0.10067915
0,1,3,49,0.045656357,1.0,0.5537713,-0.32095474,0.44346577,-0.12288276,-0.023559026,-0.08450822,-0.0728334,0.121304534,-0.09809813,0.07140269
0,1,4,49,-0.08117137,0.02415403,0.044171337,-0.12988259,-0.061254792,0.05283904,0.17265323,-0.05829291,-0.0334319,0.12963128,0.018436993,0.015635274
0,1,5,49,0.054695595,0.06740106,0.01806765,-0.010936593,-0.13786313,-0.07915023,-0.023572646,0.08892202,-0.1091121,-0.07274037,-0.10824899,0.08429759
0,1,6,49,0.101560615,0.857177,0.6147707,-0.2713501,0.47925982,-0.037916437,0.02444321,-0.23596609,0.029784448,0.09385295,0.050024867,0.036052592
0,1,7,49,0.08896459,0.011008702,0.0017082599,-0.0026089014,-0.104023166,-0.05404435,0.022847196,0.03742262,0.07512551,0.12137446,0.062011994,0.023922525
0,1,8,49,0.09925807,0.07799218,-0.04505568,0.062305365,0.008495644,0.073384166,-0.109304704,0.10281778,0.077549785,-0.0077740494,0.008098256,-0.08626309
0,1,0,50,-0.09783558,0.93140197,0.47110075,0.0754152,-0.08956886,0.4557997,0.13967986,-0.27639738,0.008499271,-0.085069805,-0.03634256,-0.118471384
0,1,1,50,-0.073370054,0.020583846,0.026912324,-0.033771716,-0.09431543,-0.13688804,-0.09404718,0.020657847,0.08392251,0.050748892,0.04891596,-0.0785944
0,1,2,50,-0.02148109,-0.09622048,0.07431125,0.050723527,-0.008936831,-0.08980987,0.07598496,0.089796,0.10569859,-0.00056875596,-0.050769,0.101144396
0,1,3,50,-0.07687884,0.9996032,0.210276,-0.2444816,0.08317553,0.15620115,-0.0036278414,-0.0728205,-0.016266972,0.06443061,0.028805185,0.07113789
0,1,4,50,0.11296306,-0.042282395,-0.13899708,-0.0679965,0.005544542,-0.10857398,-0.034340426,0.029223267,0.07644788,0.05461363,0.03146066,0.044442512
0,1,5,50,0.068552844,0.09450007,-0.05959315,-0.124671884,0.09130808,-0.038494304,0.070077784,0.10923398,-0.06002301,0.016322142,0.12449335,-0.06780322
0,1,6,50,0.026530182,0.91725147,0.22131182,-0.19048634,0.31264147,-0.14926504,-0.07149713,0.2956765,0.02834814,0.06633549,-0.0088575585,0.03840236
0,1,7,50,0.076435044,0.095751144,0.031960003,-0.08763299,0.023857275,-0.006321478,0.09465052,0.14368963,-0.0018239854,0.034896206,0.09526892,0.10324731
0,1,8,50,-0.102418154,0.03665898,-0.017858654,-0.020227868,-0.012851176,0.05598175,-0.03931991,0.08266369,-0.028047549,0.033034723,0.011554012,0.07480282
0,1,0,51,0.09534669,-0.14922473,0.02079462,-0.4160805,0.5393281,-0.67955387,-0.17720728,0.34511495,0.1131861,-0.03379605,0.07992789,-0.06429525
0,1,1,51,0.08442364,0.101861544,-0.021977939,-0.10702725,-0.10887876,0.08111048,0.19359995,0.09978187,0.04679356,0.05824955,-0.06726406,-0.070253424
0,1,2,51,-0.061221186,0.110581465,0.105787,0.06976916,0.079544686,0.05249723,0.015363254,0.02368205,-0.09875558,-0.104187086,0.033395663,-0.009520426
0,1,3,51,0.06851207,-0.06555498,0.12925322,-0.52102023,0.54391474,-0.097742535,-0.083123535,0.06336741,0.04176707,0.09662321,-0.017280258,0.0674498
0,1,4,51,-0.032222036,-0.07946675,-0.14025196,0.060450073,-0.04831011,0.06883678,0.15486774,0.049141303,0.10923862,0.09933669,0.035586853,-0.06879008
0,1,5,51,0.005990092,0.00046554208,0.005945295,-0.115265235,-0.09792053,-0.06284718,0.023662664,-0.020183548,-0.09533298,0.086122505,0.10022643,0.0022955239
0,1,6,51,-0.10210568,-0.018617816,0.23868178,-0.37337622,0.56549203,0.14169525,0.14512782,-0.18938397,-0.15963204,0.060959734,0.07200272,0.047579102
0,1,7,51,-0.010239325,-0.051413484,0.007307373,-0.093697384,-0.09869316,-0.055842075,0.013093953,0.008306174,-0.01758967,0.093337886,0.082824305,-0.057926603
0,1,8,51,-0.028815046,0.0034987256,-0.056462195,-0.086705305,-0.04052134,0.06661796,-0.051407855,-0.04021447,0.08669625,0.06712924,-0.03914102,0.04159773
0,1,0,52,0.057460483,-0.45045173,-0.074906945,0.16073789,-0.462852,0.41152233,-0.03763139,-0.12846296,-0.00027834234,-0.03867469,0.10326331,-0.10310941
0,1,1,52,-0.08296191,-0.057301138,0.19372861,0.003272659,-0.013426339,-0.11007528,-0.11585329,0.040911347,0.02321171,-0.073435605,-0.13637388,-0.069983676
0,1,2,52,0.033540946,0.017068006,0.027827807,-0.06413513,0.05068216,0.10520272,0.06605107,0.019463472,0.09270079,0.034771234,0.00078815647,-0.09691041
0,1,3,52,-0.05206208,-0.32758352,0.12506877,0.07966652,-0.47385976,0.2580976,0.09472665,0.048936125,0.1316725,0.06917641,-0.08333499,0.019343708
0,1,4,52,-0.043913465,0.00054082274,0.037890468,-0.064304784,0.052034117,0.060128197,0.050099403,-0.1296389,-0.14813302,0.04163116,-0.1415817,-0.04598088
0,1,5,52,-0.073532045,-0.109808594,0.059321083,0.06776941,0.0019594145,0.014886285,-0.008504152,-0.052294042,0.051078916,-0.046423037,0.04443766,-0.10600136
0,1,6,52,-0.032726035,-0.115884736,-0.0474069,0.001084618,-0.270602,0.15392572,0.05939411,0.07168794,-0.030895386,0.030681824,0.01050741,0.083270736
0,1,7,52,0.061847292,-0.107452236,-0.050030857,0.12193767,0.067208566,-0.12074368,-0.0657923,0.010505966,-0.05117402,-0.054233577,-0.031546205,0.03663362
0,1,8,52,-0.04081678,0.09949831,-0.08862371,0.024992863,-0.09645435,-0.021994267,-0.06296678,-0.0022789761,0.053332612,0.0512826,0.015345113,-0.074670345
0,1,0,53,0.05538864,0.7660081,0.17118539,0.057893094,-0.26398963,0.2990315,0.00477133,-0.14897406,-0.097206265,-0.016576916,-0.033008274,0.10646168
0,1,1,53,-0.096082,-0.048782773,0.117538445,0.094313286,-0.07217562,-0.11502888,-0.012203376,-0.028499143,-0.026737621,-0.080610946,-0.09640088,0.07419432
0,1,2,53,0.052194975,-0.0053247884,-0.009636551,0.05244654,0.041476794,-0.019493606,0.064174406,-0.058463413,0.118693285,0.057877917,0.11409588,-0.10978768
0,1,3,53,-0.060523387,0.8142518,0.116828516,0.010287009,-0.35834977,0.0050300877,0.047536425,-0.04211892,0.029118014,-0.084574014,-0.03917344,-0.05197048
0,1,4,53,-0.10131704,-0.07050531,0.05267739,0.13050324,0.043826543,-0.024168046,-0.062352534,-0.023758007,0.016292322,0.08021018,-0.006347322,-0.09540318
0,1,5,53,0.078872666,-0.015661158,-0.062022436,-0.042507138,0.11664547,0.0110751875,-0.058216758,0.07328943,-0.09060596,-0.021187477,-0.025492324,-0.0575812
0,1,6,53,-0.08368134,0.7505273,-0.009080102,-0.065202914,-0.029250434,-0.19927695,-0.11851548,0.09150679,-0.07897272,0.062427845,-0.06857364,-0.07640238
0,1,7,53,0.07423585,0.10572214,0.030105833,0.00991992,-0.037497755,-0.021614319,0.0420838,0.021335388,0.02037188,0.062142942,-0.06976586,-0.10086359
0,1,8,53,0.0021877778,-0.09199491,0.08174234,0.12047486,0.13301305,0.14387342,-0.038137726,-0.06354928,-0.097600184,-0.09468379,0.051150642,-0.073663644
0,1,0,54,0.09784523,0.23991959,0.03768713,0.048366815,-0.029618522,-0.02525212,0.12929657,0.015469299,-0.0046233693,-0.0105710225,0.024447419,-0.022545736
0,1,1,54,-0.09985882,0.016690977,-0.08724009,0.033026297,-0.09601334,-0.13605072,0.04353709,-0.009518603,-0.056340586,-0.030436987,0.089766644,-0.0032264367
0,1,2,54,0.091123655,0.054925196,0.09057654,-0.029758649,0.0008261428,0.03449464,-0.07099107,0.015469812,0.07983757,-0.10545022,-0.01521675,-0.04715942
0,1,3,54,0.04322956,0.05571939,0.12916304,-0.061812337,0.049252275,0.07072211,-0.043988016,-0.009007245,0.066127524,-0.012886453,-0.04296097,0.025583653
0,1,4,54,-0.028792154,0.110138185,-0.012337236,-0.10307093,0.043156933,-3.9043458e-05,-0.07803711,0.026688984,0.11877632,-0.0197187,0.05051849,-0.005592875
0,1,5,54,0.078970596,0.06840766,-0.08966474,0.050958488,0.084288314,0.018213904,-0.02016446,-0.08795728,0.071745865,0.061009545,-0.01625475,0.096209444
0,1,6,54,-0.015918847,0.19424343,-0.05064052,0.11095818,0.08800619,0.0024962276,-0.028318973,-0.0055055697,-0.007691023,-0.03703962,-0.011666636,0.023337575
0,1,7,54,-0.01745466,0.048218407,0.07661566,-0.063830525,0.08130677,0.015940014,-0.046178076,0.006099724,-0.047985658,0.048022024,0.08323211,0.076714896
0,1,8,54,-0.07942235,0.10212835,0.0870573,-0.06308405,0.02188898,0.02094942,-0.06913407,-0.058035016,-0.013349647,0.05830052,0.06846752,-0.06608011
0,1,0,55,-0.10158263,-0.36989573,-0.02548662,0.04269108,0.26082635,-0.2090881,0.025366424,0.10861555,0.08966113,0.0126933055,0.1405538,0.02443141
0,1,1,55,-0.01975176,0.00032518804,-0.08854154,-0.03365392,0.08249823,-0.09816876,-0.042209666,-0.094741575,-0.03498598,0.1346843,-0.0024481479,0.003185153
0,1,2,55,-0.008964445,0.049872883,0.096906655,-0.031116018,0.04624376,0.10609546,0.02032376,-0.060840886,-0.005470905,-0.079622746,0.09080606,0.013914667
0,1,3,55,0.06688426,-0.4715713,-0.07079476,0.061766025,0.29370603,-0.017080091,0.13222447,0.00013071568,-0.031624455,0.085778676,0.13123134,0.10667512
0,1,4,55,0.0016882281,0.01212021,-0.08101747,0.055369638,-0.0569696,0.0052560554,-0.012039578,-0.10899258,0.19123198,-0.059801295,-0.07809574,0.022993915
0,1,5,55,0.039627198,0.06220586,-0.011894852,-0.0071743974,-0.07355464,-0.0009551803,0.04995764,0.06970077,0.08243533,0.10789936,0.077904604,-0.00095457584
0,1,6,55,0.058017895,-0.33852285,-0.090118065,-0.0066176774,0.30600888,-0.03657049,0.060970876,-0.0032731243,-0.016377676,-0.059323233,0.004892909,-0.056492783
0,1,7,55,-0.08486617,0.07233352,-0.0037098376,-0.042542733,-0.09022261,-0.022661494,0.058769397,0.15725596,0.010912441,0.0198284,0.10600171,-0.045234956
0,1,8,55,-0.088262945,0.038378827,-0.067739025,0.08586784,0.071496926,0.023635337,0.0167569,-0.071024016,0.036109246,0.09047092,0.045188766,0.05332788
0,1,0,56,-0.08087845,0.8506374,0.37671494,0.053167496,-0.097038634,0.46300757,0.0066561406,-0.2020477,0.029020812,-0.086572796,0.063283876,0.056122936
0,1,1,56,0.07235418,0.11104045,0.06668085,0.061707254,0.016807612,0.06364059,-0.0054257493,-0.023302563,-0.024740996,-0.097109765,-0.0053902995,-0.012508646
0,1,2,56,0.08338701,-0.0129292905,-0.06851581,-0.009992263,0.04904252,-0.0398074,0.022325598,-0.08528499,-0.051161755,-0.0515013,0.029719405,0.007983565
0,1,3,56,-0.03371327,0.66171145,-0.007123503,-0.14070478,-0.011541664,-0.05013603,-0.011052194,-0.0964523,-0.08076472,-0.08775455,-0.012566577,0.1430082
0,1,4,56,-0.11509209,-0.05313884,0.086606726,0.064999215,0.0428313,0.014790771,0.11908696,-0.07363898,-0.026488855,-0.048386414,-0.11849497,0.06410486
0,1,5,56,-0.008217775,0.043010794,-0.0510564,-0.10432417,-0.032575,-0.06982877,-0.10892526,0.097842194,-0.07291269,-0.01476493,-0.102158725,0.052944295
0,1,6,56,-0.0706791,0.7079019,-0.007233891,-0.20909904,-0.058951266,-0.20457985,-0.20171937,0.15638606,-0.083719015,-0.046016973,0.006774191,-0.09307262
0,1,7,56,-0.039103452,0.064566605,0.0074827294,-0.088426866,0.1066644,0.023026297,0.08622654,-0.17362632,-0.097064465,-0.047371257,-0.03293484,-0.0062435046
0,1,8,56,-0.0706674,0.061675675,-0.026654348,0.043965843,-0.038850177,0.045582127,-0.01349967,-0.03131885,-0.05167817,0.01510127,-0.09861306,-0.010828152
0,1,0,57,-0.09116359,0.29434943,0.100121096,-0.0039502,0.12981844,-0.07048157,0.03485021,-0.068320386,-0.10348898,-0.010477141,-0.027346203,0.10978187
0,1,1,57,0.08406167,0.08218067,-0.03068079,0.020127172,0.047504846,0.109541774,-0.071345925,0.0038678865,0.073661596,-0.0017840529,-0.106731854,-0.100494556
0,1,2,57,-0.028274624,-0.10965035,0.10678942,-0.05988047,-0.07988109,-0.08156386,0.0028593913,0.09242346,-0.03781876,0.100412,-0.05621543,0.059999116
0,1,3,57,0.068251476,0.21511556,0.08305356,-0.07809199,0.015020887,-0.05725565,-0.114590935,-0.053319342,-0.012597147,0.028801858,-0.015608005,0.07793278
0,1,4,57,0.07450717,0.007267751,0.005039631,0.04694696,-0.09043662,0.117211446,0.07045917,-0.016125679,-0.076894805,0.025973901,0.08359584,-0.06569028
0,1,5,57,-0.004837124,-0.077746496,0.0019730479,0.12480483,0.074091166,0.015217757,-0.09837209,-0.059277136,-0.03280794,0.06775946,-0.11203801,0.009431571
0,1,6,57,0.021941366,0.2742608,-0.00856442,-0.1400328,0.0014009522,-0.008418649,-0.13523313,0.0066145738,-0.0810569,-0.10705364,-0.02018326,0.0530203
0,1,7,57,0.07170833,0.105533235,0.02367263,0.09264961,0.011257081,-0.05349828,-0.09459253,0.07890796,-0.059423633,-0.013687397,-0.090432554,-0.0661828
0,1,8,57,0.019897005,0.037794553,-0.008297287,-0.05377552,0.067718394,-0.06230593,0.108678944,0.07973554,0.096136436,-0.10257096,-0.08154649,0.05786241
0,1,0,58,-0.0022025462,0.4389999,0.04570417,-0.20987855,-0.1630688,0.09912556,0.06816882,-0.039652072,0.10418128,0.016546318,-0.13017868,0.060240828
0,1,1,58,0.09515825,-0.036591254,-0.08487989,-0.10633271,-0.20467456,0.48505786,-0.275297,0.13428421,0.024749093,-0.046984807,0.12316863,-0.09883562
0,1,2,58,0.06962252,-0.085179016,-0.10205466,0.019445501,-0.024664763,-0.017333481,0.03149564,-0.03934496,-0.0844244,0.012553359,-0.017690707,0.033348747
0,1,3,58,-0.0819466,0.6421972,0.16776063,0.022606822,-0.107578866,-0.057524938,-0.020485742,0.0621742,0.0685379,0.004515815,-0.09147409,0.012510101
0,1,4,58,-0.025187545,-0.05613257,-0.109638095,-0.13663995,-0.02941136,0.32649446,-0.13264146,0.13862143,0.14840743,0.021942662,0.0035774205,-0.08109874
0,1,5,58,0.09023732,0.014511414,-0.07288092,-0.10275588,-0.055462893,-0.091713645,0.007432252,0.016084932,0.029737717,-0.0012625601,0.06584567,0.100876175
0,1,6,58,0.08462565,0.6927669,0.20443128,0.0902643,-0.00844234,0.022835389,-0.22730793,0.14767312,0.0009907124,0.12349351,-0.083549984,0.00890049
0,1,7,58,-0.08330394,0.10691989,-0.069502905,-0.1376597,-0.07382248,0.22439945,-0.07459681,-0.026895344,-0.029145934,0.04129803,0.07682062,0.10136526
0,1,8,58,-0.0841074,-0.060781956,-0.0227921,-0.04021913,0.018836107,0.058716733,0.025330149,-0.08263164,-0.108328596,-0.019041738,-0.02150598,0.06625462
0,1,0,59,0.056370232,-0.3505753,-0.020005085,0.1530001,-0.0992042,-0.14261095,-0.11424912,0.19172816,0.07248087,0.008054945,-0.039781008,0.094682984
0,1,1,59,-0.026604068,-0.0015547797,-0.039490514,0.109297045,-0.02299103,-0.16695976,0.104037926,-0.0169723,0.08406854,-0.02746494,0.098026045,0.08932156
0,1,2,59,-0.053447414,0.06658118,0.04834605,0.010156783,-0.032525565,0.044038177,0.04779438,-0.03200785,0.069516845,-0.0055381595,0.03931166,0.101553105
0,1,3,59,0.05876811,-0.30824107,-0.15662669,0.049817633,-0.029633012,0.13850586,-0.015410583,-0.07017351,-0.055142693,0.046331614,0.01700739,0.05493653
0,1,4,59,0.0029279552,-0.06769509,0.048993472,0.036552716,0.07972522,-0.23105347,-0.020310495,-0.12624961,-0.04172267,-0.030759284,-0.02697781,0.089523174
0,1,5,59,-0.043870185,-0.04634118,0.02013003,-0.043660514,-0.036849078,0.1289004,-0.090159856,-0.052541204,0.019991945,-0.033418473,-0.0019406844,-0.056769293
0,1,6,59,-0.029902516,-0.3227566,-0.05284888,0.010243049,0.026669664,0.12065039,0.13754295,0.0038606569,-0.004051461,0.03051215,-0.07842048,-0.083522104
0,1,7,59,-0.089830495,-0.009244338,-0.074554235,0.071733534,0.12342107,-0.15949968,0.08060774,-0.032676455,-0.01044025,-0.005839017,0.0060822065,0.11062411
0,1,8,59,0.09891853,-0.05755875,0.051124476,-0.011693961,-0.03887812,-0.0152320005,0.086109854,0.06426882,0.05131272,-0.10649206,0.06537576,0.11067187
0,1,0,60,-0.1004401,0.63272357,0.15801962,-0.20117913,-0.04027485,-0.1938634,0.07381685,0.038785286,-0.13336949,0.009889603,-0.08575004,0.03989388
0,1,1,60,-0.08227972,-0.04720877,-0.13301574,-0.1479706,-0.10034414,0.03285789,0.10725108,-0.04785438,-0.07423202,0.087558135,0.080828786,0.086788274
0,1,2,60,0.048501328,-0.11042225,-0.09858808,0.042505264,-0.067547105,0.033019185,0.074492835,0.018743955,0.10309633,0.11697069,-0.033071432,-0.07755298
0,1,3,60,-0.045477573,0.9996914,0.288371,-0.17241909,0.010609677,0.05215455,0.31797725,-0.03867822,-0.0022149377,0.056915473,0.08541792,0.020312842
0,1,4,60,-0.06224553,-0.059924074,-0.15960942,-0.10365964,-0.066086926,0.052402135,0.18468688,0.15131432,-0.069378056,0.11245397,-0.036617454,0.027154095
0,1,5,60,-0.06346861,0.08575978,0.028948091,0.039588656,-0.0026013923,0.071968324,0.05334381,0.051733904,0.06464122,0.06462876,0.06520933,-0.07756007
0,1,6,60,-0.10513917,0.8366134,0.11929292,-0.16432345,0.21655795,0.26091358,0.34843215,-0.17154528,-0.16849267,-0.07652554,0.016135285,-0.07876041
0,1,7,60,0.014412691,0.0107501745,-0.056419995,-0.12012411,-0.07345372,0.0005126887,0.022276735,0.043229267,0.12056381,0.03266973,-0.09837132,-0.1094783
0,1,8,60,0.07789203,0.06978687,-0.068985865,0.13055839,0.051876545,-0.027084146,0.01787182,-0.08902626,-0.025876502,0.010115258,0.08841125,-0.033078074
0,1,0,61,-0.09773334,0.18740323,0.04899601,0.031960253,0.13881023,0.028630806,0.13640696,-0.03197693,0.0069478815,0.018484479,0.026838845,-0.062871434
0,1,1,61,0.053524267,-0.05925413,0.03559114,-0.018923387,0.06176214,-0.06472057,-0.05071534,-0.044288445,0.1046787,-0.0013791134,-0.09078512,0.012151808
0,1,2,61,0.072512485,-0.01775086,-0.071066484,-0.032724567,-0.0382958,-0.06580529,0.08419309,-0.09936469,0.01427175,0.056819793,-0.098648764,0.03863152
0,1,3,61,0.05906763,0.20389217,-0.05034637,-0.09340529,0.11044835,0.01352532,-0.10400486,0.012204021,0.061072357,-0.022293948,0.10436576,0.029414838
0,1,4,61,-0.00048190757,-0.013120584,0.068811074,0.01363961,0.08976163,-0.0505394,0.077856585,-0.031117363,0.07472744,-0.011257752,0.065014474,0.084143884
0,1,5,61,-0.00055636355,-0.098068155,0.07271687,0.018505655,0.11065301,0.1265393,0.07567335,-0.0053061545,-0.09070716,0.046432577,0.07907638,0.02845911
0,1,6,61,-0.014658264,0.072594546,0.06988312,-0.06929569,-0.024952572,-0.15415673,0.037441324,0.050614987,0.005336569,0.03187688,-0.01087284,0.07426373
0,1,7,61,0.0040211338,0.08261705,0.04445177,-0.007869259,0.026713101,0.101522714,-0.05969028,-0.07014972,-0.07415503,0.05650802,-0.063621014,-0.09953952
0,1,8,61,-0.03623225,-0.03943637,-0.05388542,-0.084550545,-0.06507779,0.004996275,0.040554963,0.0917987,-0.012301625,0.03410085,-0.096708395,0.032655247
0,1,0,62,-0.08784501,0.24091318,0.13716859,0.20083696,-0.2537616,0.14671382,0.14817287,-0.32343638,-0.06900949,0.10800047,-0.05894822,0.086796135
0,1,1,62,-0.037664868,-0.00084498525,-0.02655644,0.08424433,0.10006619,-0.077847056,0.009757199,-0.059984762,-0.1126404,-0.069526866,-0.10435092,0.08478475
0,1,2,62,0.03436601,-0.016160168,-0.009353891,-0.07358946,-0.027099976,0.012094543,0.012556277,-0.033957854,-0.02258847,-0.019943722,-0.038743425,0.09212557
0,1,3,62,0.10446858,0.26534438,0.0024231637,-0.060389493,-0.08822607,-0.076074,-0.017348867,0.06870392,0.060811434,-0.039630186,-0.029351858,-0.03825473
0,1,4,62,-0.06315413,0.0635624,-0.0076514715,0.021572787,-0.04198078,-0.124256976,-0.082809225,-0.057229698,-0.111605026,0.10908414,-0.058880184,0.050128765
0,1,5,62,-0.07334248,-0.021413974,0.04642684,-0.009547329,-0.017355263,-0.0066117244,0.0014493167,0.084657915,-0.008558315,-0.09078782,-0.05522941,-0.05137976
0,1,6,62,-0.054260917,0.17176926,-0.2344646,-0.06981059,-0.082078755,-0.106772944,-0.09710628,0.1797586,0.030970253,-0.08436404,0.032398563,0.10193651
0,1,7,62,-0.07668506,-0.098970875,-0.028150266,0.08049841,-0.07791489,-0.10519164,0.008998917,-0.12054524,0.06806437,-0.057070334,-0.11442248,-0.020701736
0,1,8,62,0.01718781,0.046222948,-0.031155668,0.027780892,0.048533086,0.084752604,-0.06510961,-0.0869269,0.055709694,0.108905256,0.032563202,0.102553286
0,1,0,63,-0.05999325,0.3074453,0.016734831,0.015554131,-0.10238724,0.22670074,0.03852624,0.08552232,-0.0029842264,-0.07567288,-0.035549603,0.022316733
0,1,1,63,-0.03818189,-0.08902703,0.13411115,0.019518245,0.078681625,-0.06057078,0.21596819,-0.16378981,0.06255764,-0.015519216,-0.024834588,-0.0140457675
0,1,2,63,-0.0671625,-0.026725426,-0.09880289,-0.02061599,0.09995109,-0.009247289,-0.059042443,-0.093778305,-0.020234905,0.11436742,0.094297126,-0.053651333
0,1,3,63,0.008283702,0.38895103,0.0058633424,-0.04677841,-0.00039170898,0.09255169,-0.036551975,0.06379318,0.055115394,-0.08691583,-0.101769395,-0.07328035
0,1,4,63,-0.07955131,-0.006020874,0.0031890816,-0.049281567,0.12712927,0.12435863,0.17563929,-0.16784379,-0.074184656,-0.052795,0.0041201976,0.08865202
0,1,5,63,-0.08329664,0.0132921785,0.05533389,0.15871555,-0.027765471,0.09067912,0.033958443,0.032274134,0.0498779,-0.030627998,0.022060439,-0.06491397
0,1,6,63,0.02368341,0.18406866,-0.12802625,0.076876014,-0.03251728,-0.067288525,0.045311835,-0.015169361,0.14224929,-0.019293,-0.12120728,-0.13945964
0,1,7,63,-0.02621314,-0.0116792545,-0.019243129,0.13458122,-0.057247087,0.04803504,-0.08388613,-0.13041274,-0.13255872,-0.09297947,-0.097685784,-0.037884116
0,1,8,63,0.08139028,0.071684845,0.037600912,0.13717435,0.022257896,0.05508954,-0.07938339,-0.09969243,0.09045042,0.058904488,0.02339096,0.051384874
1,2,0,0,0.005918773,0.012865413,0.0119159,-0.18834747,0.09007545,0.020186173,0.07591065,-0.066211484,-0.0075379065,-0.09624936,0.3000851,0.023312777
1,2,1,0,-0.009880848,0.009677241,0.20217797,-0.022596952,0.025713135,-0.012910476,-0.0052190186,-0.025606308,0.08647413,0.27719653,0.012103489,-0.010323133
1,2,2,0,-0.015368148,-0.0006719697,0.004443638,-1.0,0.022741282,-0.0024483555,-0.0133096,0.016274516,-0.07938066,0.16039635,-0.015477182,0.0026752148
1,2,3,0,-0.012829965,-0.015561501,-0.0059331395,-0.42004773,0.018457167,-0.022304282,0.012515294,-0.0028470675,0.0032217249,-0.10133177,-0.006201866,0.0049829446
1,2,4,0,0.016238112,-0.015312847,-0.0032820832,0.024792401,-0.02599113,0.020430641,-0.01788505,0.032768976,-0.06741067,-0.15386382,-0.007321924,-0.011040488
1,2,5,0,-0.006287074,0.0014227256,0.012334738,-0.002990416,0.07764615,-0.0047116103,0.006370842,-0.0018083202,0.025037877,0.53985554,0.0047824774,0.0016686041
1,2,6,0,0.014383128,-0.0030604657,-0.5823334,0.0006691465,0.068553776,-0.052819245,0.047956973,-0.0042973575,0.046860736,0.0224594,-0.011380238,-0.0044683535
1,2,7,0,-0.0061781765,0.010962913,0.008779844,-0.03990168,-0.005234349,-0.0008959612,-0.0030185224,0.016518835,0.02537265,0.0038150344,-0.008574383,-0.0041246545
1,2,8,0,-0.008458807,0.005999094,-0.010653811,0.21908201,-0.01656805,0.028543884,-0.01840832,-0.0021206073,-0.024577307,-0.081129886,0.009310791,-0.0054908656
1,2,9,0,0.006424441,0.0019597597,0.0044624954,0.07450184,-0.0018992731,-0.010315265,0.002689541,-0.016575703,0.002632557,0.00377349,-0.0060084295,-0.0014778525
1,2,10,0,0.0005241389,0.0049313176,-0.25254282,-0.08163557,0.032465443,-0.009148885,0.012838134,-0.0051897815,0.03086844,-0.24339531,-0.008886892,-0.007853894
1,2,11,0,0.01232074,-0.008559462,-0.00678608,0.10357077,-0.110672675,-0.010120759,0.0026063279,-0.010792876,0.0070624673,-0.31867138,0.012816461,0.0050513446
1,2,12,0,-0.003287174,0.015232243,-0.01086802,0.008753306,-0.032734875,0.008406782,0.0025268116,0.0065512573,0.021383554,0.062531866,-0.0020091087,0.01408067
1,2,13,0,-0.0071050664,-0.003738856,-0.014228402,-0.015404265,-0.15394668,0.002434485,0.0008888237,0.00017338477,0.029405773,-0.000917014,-0.009771662,-0.015025856
1,2,14,0,-0.01347511,-0.004752552,8.5342675e-05,-0.024955388,0.04469117,-0.019195564,-0.0048234663,0.026577936,-0.13392924,-0.0011479501,-0.0068589374,0.010567339
1,2,15,0,-0.005681183,-0.0011438709,-0.010195067,-0.003254965,-0.046526063,-0.0030026017,-0.0064945198,-0.0020601426,-0.013728959,-0.009607429,-0.014157955,0.008777473
1,2,16,0,-0.015757544,-0.004317887,0.00038883276,0.32126623,0.023234457,0.0007043105,-0.012635299,0.016713498,-0.0030477133,-0.18896066,-0.0056726467,0.0022099335
1,2,17,0,0.00011652486,-0.0018753856,0.35762843,0.035043783,-0.02470283,0.014629213,0.0027099412,0.003302215,0.022880556,-0.013389939,-0.013541013,0.011488603
1,2,18,0,-0.005024494,-0.013454683,-0.003077047,-0.42637664,0.012677059,-0.03272033,-0.001233799,0.0023635474,-0.012792306,0.12975591,0.002351366,-0.010214541
1,2,19,0,0.011261326,0.0053874403,0.011061549,-0.23763138,0.025306063,-0.02080783,0.02580084,-0.003556686,0.019351926,0.23190957,0.010808803,0.00019983575
1,2,20,0,-0.01118576,0.0017216709,0.0061899666,-0.08873497,0.025422638,-0.02138697,0.024573348,-0.0072719697,0.016490228,-0.010139916,0.006466504,0.003470976
1,2,21,0,0.016312534,-0.0049545746,-0.008899486,0.027412627,-0.009256393,0.015767055,-0.03857351,0.032214876,-0.0012790111,-0.07464136,0.0084383,0.013020704
1,2,22,0,0.000719195,-0.0058597047,-0.0082072,0.08110217,-0.0041764667,0.024581281,-0.010313534,-0.008519108,0.029550342,0.027421556,0.009310011,-0.0015660543
1,2,23,0,-0.0065986323,0.0025661904,-0.011373766,-0.0074369325,-0.0010384484,-0.003514444,-0.0087521495,0.010097923,-0.020095725,-0.011567103,-0.010464119,-0.011636008
1,2,24,0,-0.0011216007,-0.0052851476,-0.24232417,-0.027820967,0.0045814672,-0.023769619,-0.000119794226,-0.011753098,-0.0020176447,-0.013593694,-0.014132177,0.010786146
1,2,25,0,-0.009107575,-0.014816308,0.11824089,0.0007678069,0.068546325,-0.073184565,-0.010333175,-0.16051179,0.09289264,-0.78173536,0.0038367864,-0.011103123
1,2,26,0,0.012677732,0.00029911473,0.012604566,-0.0015574973,-0.01756783,-0.007942002,0.0019801832,-0.009387022,0.02920958,0.001855218,0.009594563,-0.008239334
1,2,27,0,-0.0056968904,-6.489456e-05,0.04726179,0.030323295,0.018353416,0.04904799,-0.03378678,-0.02355834,0.013477114,-0.5048205,0.009694178,-0.012992686
1,2,28,0,0.0067079314,0.007468123,-0.0048493575,0.27452442,-0.035341732,0.009560126,-0.0051877876,0.0067058927,-0.063562766,0.002515914,0.006877225,0.0079312995
1,2,29,0,-0.0063911434,0.010846525,-0.010000136,0.053038295,-0.0005666373,0.045863107,-0.0416529,-0.01516015,0.051154476,0.0058677327,0.013783423,-0.012185004
1,2,30,0,0.006973479,-0.00930367,0.011536358,0.08165423,0.0140301455,0.0009850871,0.00786367,0.0046906853,-0.10771611,-0.00013246946,-0.008992579,-0.01445478
1,2,31,0,0.0046487274,-0.009724781,0.00055893324,-0.0069091246,-0.0498178,-0.0022171666,0.0061282166,-0.018084658,0.010816337,-0.16739659,-0.0046069645,-0.0012376457
1,2,32,0,0.004180919,-0.007506689,0.013527818,-0.24563634,0.017899642,0.00044959938,0.025720833,-0.06261283,0.011567888,-0.0024685285,0.017951107,-0.00045864657
1,2,33,0,0.007000216,-0.008853264,-0.81658083,0.054993626,-0.0022381665,0.0070271892,0.012867546,-0.010391824,-0.99999994,-0.7216811,0.006834995,-0.00534107
1,2,34,0,0.0029510981,-0.0071877614,-0.006378051,-0.029598007,-0.005693697,-0.003134827,-0.018926978,-0.016271489,0.017882578,-0.008900672,-0.39529264,0.012057118
1,2,35,0,-0.0036977208,0.01466554,-0.6975951,0.026767429,-0.029384281,0.009720864,0.029319322,-0.007606713,0.17270233,-0.013280304,-0.01330762,0.0041990876
1,2,36,0,-0.0073172026,0.0007570032,-0.013559589,-0.008652403,-0.20790868,-0.010490434,0.01613382,-0.0034243122,0.012615626,-0.3319304,-0.013153918,-0.005138075
1,2,37,0,0.008027093,0.011658462,0.07758301,-0.019534064,0.02507506,0.029093605,-0.036956668,0.0023981086,-0.18220295,-0.0062253457,-0.0057536624,-0.0054677073
1,2,38,0,0.0120145045,-0.013137037,0.0051810965,-0.0918353,-0.055950228,-0.010261143,-0.010467093,-0.015222688,0.0076200296,-0.0012742113,0.0027271528,0.012225008
1,2,39,0,0.0066109276,0.012320694,0.9862651,0.008052957,0.030583443,0.039619733,-0.05083383,-0.011432973,-0.08244659,-0.36059296,-0.0047174767,-0.00041328557
1,2,40,0,-0.0062260907,0.012819948,-0.013445713,-0.011153938,-0.017446572,-0.04578275,0.0010962279,-0.0055045225,0.0047237747,-0.040604867,0.0064565674,0.0069781933
1,2,41,0,0.0013303475,0.013127303,-0.005207697,-0.14179055,0.0050252685,-0.034106784,0.036147323,0.0024520836,0.022960816,0.003597021,0.012116348,-9.7671524e-05
1,2,42,0,0.0038723818,-0.0062989686,-0.012289526,-0.012212851,-0.03311581,0.013161462,0.0055049565,0.013444506,-0.009983295,-0.2256201,-0.010427618,-0.008514674
1,2,43,0,0.013359363,-0.0014780555,-0.003914837,0.096623555,-0.031873528,0.0038392202,0.0036654787,-0.018304521,0.5247957,0.0111873,0.0013988484,-0.006562423
1,2,44,0,0.015058441,0.008682968,-0.021685451,-0.45235872,0.13383204,0.004056728,-0.027405947,0.0471896,-0.09498938,0.19910653,8.287838e-05,-0.014194619
1,2,45,0,0.01191264,0.0013364833,0.00023653172,-0.21732733,0.012916606,-0.022291213,0.023927504,0.014783284,-0.0005266434,0.014772278,0.002657527,-0.0005651731
1,2,46,0,0.009402978,0.0019692834,0.7119066,-0.29141977,-0.02231213,-0.07530414,0.07730861,-0.03234777,0.015702024,-0.035793774,0.18963172,0.006571358
1,2,47,0,0.0063420786,0.0056590065,-0.009085612,-0.07680774,0.020453356,0.0024102645,0.0052903495,-1.2737917e-05,-0.05725433,-0.0077417176,0.003818011,0.013824955
1,2,48,0,0.0030829897,0.006557949,-0.014863152,0.00749254,-0.0074305087,-0.013166636,-0.009377751,-0.018390095,0.048050452,0.019771487,-0.36085418,-0.0072705336
1,2,49,0,0.0116856,0.00032461435,-0.0040645506,1.0,-0.13629873,0.01832531,-0.047125336,0.04040353,0.014790915,-0.015292617,0.010000108,-0.0034738574
1,2,50,0,-0.009630172,-0.012715457,-0.00927317,-0.2909074,0.020429589,-0.029094582,0.0014427786,0.036927927,-0.06554107,0.09364646,0.61423457,0.013801146
1,2,51,0,0.010133416,-0.024351547,-0.16499868,0.0013293161,-0.054034244,0.032275587,-0.06328949,0.06202078,0.014750498,0.0678481,-0.01546214,-0.006860098
1,2,52,0,0.011910428,-0.013915727,-0.0060420837,-0.10732698,-0.16655447,0.004459364,0.010743373,-0.03630461,0.15234718,-0.6038952,0.015236817,-0.001980923
1,2,53,0,-0.0104518365,0.0024314001,0.01269084,-0.007262053,-0.040691275,0.0025438585,0.0023991496,-0.016968992,0.015236195,-0.048260093,0.0376496,0.011576584
1,2,54,0,0.010646963,0.003995491,-0.009185573,-0.012459658,-0.013195461,-0.0061284793,-0.0036672738,-0.006452779,-0.009451978,-0.0123279765,-0.0018189624,-0.01458738
1,2,55,0,-0.00064143725,-0.0040350016,0.010077957,0.0043930244,-0.00440119,-0.03489524,0.0068795993,-0.0057801967,0.015730953,-0.060248595,-0.0022461165,0.002942061
1,2,56,0,-0.0074889804,0.004888989,-0.3188104,-0.007983051,0.024579173,-0.030935863,-0.008835752,-0.03106518,-0.01953276,0.006828959,-0.008126801,-0.013159769
1,2,57,0,-0.008420834,0.0011119302,0.00042293593,-0.013779003,-0.020012427,-0.0012382907,-0.0048470795,0.001195774,0.006510131,-0.0039306898,0.0039614793,-0.014599843
1,2,58,0,0.014539058,-0.0071284194,-0.05056991,-0.027901242,-0.01663406,-0.042778697,0.04490182,-0.009590586,0.054730218,-0.21087821,-0.01280141,0.008166419
1,2,59,0,-0.0035008716,0.012140116,0.01062355,0.013725751,-0.00046106047,-0.009263816,0.009559485,-0.019331282,0.033577055,-0.25015274,-0.008050684,0.0032749623
1,2,60,0,0.008550413,0.012486875,-0.013986792,-0.031147834,0.00010678435,-0.011349709,-0.004231508,-0.0033557995,-0.0056667,0.1603866,-0.7026041,-0.0047499966
1,2,61,0,0.0095690135,0.01434564,0.005191367,-0.008739583,-0.03352662,0.024188127,-0.0007436799,0.009258301,-0.018608605,-0.10027583,-0.014191469,0.014778703
1,2,62,0,-0.011055102,-0.011236751,0.002746651,0.3187625,-0.017054392,0.023520125,-0.009181006,0.002813754,0.060736712,0.4658023,-0.0048036985,-0.00918467
1,2,63,0,0.0018276644,-0.0023932103,0.0058480185,-0.17540322,0.010484381,0.02251192,-0.035153396,-0.00298547,-0.036269397,0.05740746,0.012975825,0.015130261
